<?xml version="1.0"?>
<opencv_storage>
<my_svm type_id="opencv-ml-svm">
  <svm_type>C_SVC</svm_type>
  <kernel><type>LINEAR</type></kernel>
  <C>1.</C>
  <term_criteria><epsilon>2.2204460492503131e-016</epsilon>
    <iterations>1000</iterations></term_criteria>
  <var_all>1000</var_all>
  <var_count>1000</var_count>
  <class_count>2</class_count>
  <class_labels type_id="opencv-matrix">
    <rows>1</rows>
    <cols>2</cols>
    <dt>i</dt>
    <data>
      -1 1</data></class_labels>
  <sv_total>1</sv_total>
  <support_vectors>
    <_>
      2.73020361e-002 2.51060277e-002 6.12761714e-002 8.82880483e-003
      3.66256083e-003 1.99604090e-002 -5.49756875e-003 2.75932103e-002
      3.93080227e-002 -7.15577304e-002 -7.54723512e-003 -1.14859883e-002
      -1.73326395e-003 7.29894219e-003 3.04148365e-002 2.60101669e-002
      1.75077245e-002 7.75217917e-003 -5.39205894e-002 -5.12381899e-004
      -5.60265454e-003 -1.63493212e-002 2.16189269e-002 4.31109406e-003
      -2.05662176e-002 1.08038848e-002 1.23109343e-002 2.60809110e-003
      -7.86843970e-002 2.23617796e-002 7.07573863e-003 1.43141225e-002
      1.19581688e-002 -4.21777181e-003 2.27745753e-002 1.09271267e-002
      -9.36932862e-003 -6.37262687e-003 5.68173639e-003 1.78540610e-002
      -3.10349371e-003 1.92034300e-002 1.33991912e-002 -3.19791702e-003
      1.69264413e-002 2.80282169e-004 3.26486956e-003 1.98451672e-002
      1.45120081e-002 3.37458551e-002 -4.74311188e-002 1.09127481e-002
      2.10101772e-002 1.41744176e-002 8.20105337e-003 9.60940495e-003
      2.80229803e-002 -8.47975239e-002 5.48644811e-002 4.12195995e-002
      -1.70655660e-002 3.27504463e-002 1.06122652e-002 2.22473815e-002
      5.13277855e-003 1.69304702e-002 9.19664092e-003 7.03109615e-003
      4.90879864e-002 2.57378612e-002 1.17275892e-002 9.44217443e-002
      4.82672098e-004 2.71627102e-002 -9.87537950e-002 1.23103326e-002
      1.56543758e-002 3.87029746e-003 -3.38573903e-002 -1.69307913e-003
      2.79348381e-002 4.49318858e-003 2.15147603e-002 1.44261969e-002
      1.12996502e-002 -1.00115966e-002 -3.63328331e-003 1.61303452e-003
      -5.29816635e-002 1.21940691e-002 7.69409165e-003 7.87401665e-003
      1.03807803e-002 1.19020687e-002 2.56079715e-002 -1.11376951e-002
      -2.67635528e-002 1.85910705e-002 2.20705867e-002 2.33801473e-002
      -7.73771782e-004 -4.44655865e-002 3.42443842e-003 1.87977273e-002
      -1.29720658e-001 -3.71186361e-002 1.65129155e-002 1.58715248e-002
      1.21191498e-002 -7.98098743e-002 -2.96439659e-002 2.32763216e-002
      6.46361783e-002 -1.17750829e-002 2.48281397e-002 6.80279639e-003
      1.72917417e-003 8.74160882e-003 -2.49124058e-002 -1.37976468e+000
      1.32849766e-002 7.26494193e-003 1.33527874e-003 2.84500327e-002
      1.98906194e-002 -5.28422669e-002 -2.64600758e-002 2.27069613e-002
      1.42641569e-004 -7.57527351e-002 1.69888288e-002 1.86182149e-002
      -8.57628882e-003 1.28782056e-002 7.76413409e-003 -9.19047371e-003
      1.36577776e-002 1.48349106e-002 3.34664695e-002 1.14568090e-002
      -3.12688500e-002 1.32207144e-002 2.47866344e-002 -2.54900604e-002
      1.99861564e-002 8.36117007e-003 8.04149488e-004 -1.44849727e-002
      1.27073489e-002 -6.07504183e-003 7.28320004e-003 2.60647964e-002
      2.65151896e-002 3.35969143e-002 -3.00121456e-002 4.43966314e-003
      -1.24270625e-001 3.48746311e-003 -2.16341927e-003 4.08425834e-003
      -2.14949530e-003 -6.70178840e-003 -1.04867551e-003 9.91793349e-003
      7.50948500e-004 -7.27154091e-002 1.17672216e-002 3.79004935e-003
      3.89915295e-002 1.66912191e-002 4.83919401e-003 5.00137685e-003
      4.89045400e-003 2.30731703e-002 -1.21166622e-002 1.65871140e-002
      2.58751977e-002 -8.07453785e-003 -1.32423744e-001 3.97148877e-002
      1.48850083e-002 8.97853693e-004 2.08598413e-002 1.53638683e-002
      3.20039294e-003 8.27024225e-003 -1.00896219e-002 3.59530263e-002
      2.66960878e-002 5.12505416e-003 1.14054196e-002 1.94652826e-002
      2.22112834e-002 -1.63346045e-002 9.54635534e-003 3.13334353e-002
      5.22952527e-003 3.31406854e-002 1.12024322e-002 2.40147114e-003
      -2.09867861e-002 7.49638155e-002 1.38819600e-002 1.98740829e-002
      -8.27825069e-002 1.80518888e-002 1.14932312e-002 2.68179066e-002
      -7.11192191e-002 -1.67944981e-003 6.15117652e-003 4.39858362e-002
      1.07169393e-002 4.87377448e-003 2.48774793e-002 -9.07405000e-003
      2.20387988e-002 -1.52612934e-002 2.15406362e-002 -1.25712380e-002
      2.74147429e-002 -8.40213802e-003 6.40738197e-003 1.43579347e-002
      3.12499166e-003 -9.46988910e-002 2.65684305e-003 1.72698759e-002
      2.97906771e-002 2.48436686e-002 1.58710163e-002 2.12301407e-002
      4.36765477e-002 -3.05167865e-003 -6.06811643e-002 -3.76465777e-003
      4.54389909e-003 1.49892811e-002 -7.93234725e-003 1.60576813e-002
      4.20778478e-003 3.27323712e-002 4.90570813e-003 7.71469204e-003
      -2.58073118e-002 -1.22789675e-002 2.50039226e-003 -2.61716470e-002
      3.51817207e-003 4.57888991e-002 6.15961757e-003 -6.43030033e-002
      6.38825148e-002 -8.37797597e-002 1.08217197e-002 3.02206948e-002
      -1.22568412e-002 3.66952084e-003 1.15044611e-002 -1.59106459e-002
      7.92636909e-003 -9.39999055e-003 5.75872473e-002 -1.58623574e-004
      2.50971485e-002 2.34606443e-003 3.52220945e-002 -4.65851389e-002
      8.46907496e-003 2.89207995e-002 -3.00590023e-002 1.51609872e-002
      1.22927353e-002 4.53271456e-002 3.92813161e-002 7.17548653e-004
      -5.32285310e-003 -2.61178892e-002 -2.31124088e-002
      -4.93305328e-004 2.06530504e-002 3.19945961e-002 4.17432152e-002
      5.42059727e-003 -3.10224644e-003 -2.25567329e-003 3.29800113e-003
      9.84349567e-003 -9.46991984e-003 -5.01064733e-002 8.43754387e-004
      2.39203032e-002 -2.20742524e-002 -1.34834766e-001 1.54402032e-002
      -4.60584369e-003 -6.19564671e-003 -4.52077948e-002 2.71035964e-003
      -8.75771698e-003 1.05821267e-002 1.56640708e-002 -3.78171727e-002
      8.78799055e-003 1.33978864e-002 3.80791002e-003 -4.75010388e-002
      4.04103845e-003 9.84441955e-003 1.88096352e-002 -7.47167272e-003
      -4.13285978e-002 -5.43388771e-003 -1.06879875e-001
      -6.26911968e-002 3.30465124e-003 1.93826836e-002 -5.21781258e-002
      4.32878956e-002 5.14707454e-002 4.50583659e-002 3.95911150e-002
      6.75603421e-003 -1.51445437e-002 -3.41222831e-003 6.10293215e-003
      1.18741961e-002 -3.82691026e-002 5.81289083e-003 7.11514847e-003
      2.29403675e-002 3.07295267e-002 4.79882620e-002 4.14971757e-004
      1.57345012e-002 6.30262587e-003 6.95683621e-003 1.93916578e-002
      -3.56981461e-003 1.09259207e-002 2.27770507e-002 -2.28852555e-001
      1.09124230e-002 -1.89397857e-003 1.73782688e-002 1.85350571e-002
      2.55854297e-002 5.84917422e-003 6.57627508e-002 2.07160204e-003
      3.29937576e-003 -9.18371528e-002 2.04725340e-002 -1.50328083e-002
      -9.00877826e-003 1.71359479e-002 1.80707115e-003 1.48438541e-002
      2.34970860e-002 6.19390653e-003 -2.01464677e-003 3.06094252e-002
      1.54076153e-002 -1.46102638e-003 4.61979909e-003 1.46820899e-002
      -1.95016377e-002 4.96158600e-002 3.03363521e-002 -1.39611870e-001
      6.36839168e-003 -1.03771724e-002 -3.86406220e-002 6.37532817e-003
      3.86784482e-003 7.76700070e-003 1.12798410e-002 2.56005190e-002
      6.46968465e-003 3.74778770e-002 1.20341498e-002 2.30444875e-002
      -9.37649328e-003 -3.26141575e-003 8.98698531e-003 2.05499250e-002
      3.47702429e-002 -2.10335497e-002 -9.21772036e-004 -1.12511879e-002
      2.10633408e-002 -1.22206928e-002 4.26749885e-003 1.16445292e-002
      -1.27866957e-003 -3.48540470e-002 2.73953211e-002 1.99587326e-002
      3.24582844e-003 -9.50574316e-003 -1.87672019e-001 2.92100273e-002
      1.59595180e-002 -4.04048618e-003 4.07579504e-002 -4.10234509e-003
      1.58604309e-002 2.02314500e-002 -7.92123079e-002 -4.14140932e-002
      2.36609187e-002 -3.65650468e-002 2.28487384e-002 -1.20844036e-001
      1.05708754e-002 3.61533253e-003 5.35615440e-003 5.39319450e-003
      -1.21297678e-002 2.97500379e-003 2.22143289e-002 -1.01325298e-002
      4.20520753e-002 5.18472791e-002 1.39318826e-002 2.00382005e-002
      -2.08978634e-003 2.21532378e-002 3.86836529e-002 8.57401732e-003
      -6.78367466e-002 1.72884427e-002 3.05818841e-002 -3.51135060e-002
      -8.70589167e-003 4.94860532e-003 -5.75183570e-001 -4.08925302e-003
      2.63415813e-003 -9.89640877e-003 -4.24058661e-002 9.03656147e-003
      8.93523823e-003 -1.89984194e-003 -2.61681410e-003 1.20645287e-002
      7.46368244e-003 4.29729326e-003 -2.85092443e-002 2.78604170e-003
      2.19294708e-002 -7.30906473e-003 2.74389405e-002 -2.67331459e-004
      3.11985705e-002 1.06887743e-002 1.20465588e-002 -2.30361577e-002
      -1.79962181e-002 3.72799672e-003 -6.97391555e-002 7.36735202e-003
      1.86542589e-002 -6.38401788e-003 5.20546548e-002 1.85933691e-002
      1.17875664e-002 -4.81091179e-002 -1.98504273e-002 2.65902421e-003
      1.04661202e-002 1.05385687e-002 2.85055861e-002 6.80202898e-003
      -9.37348753e-002 -1.14048773e-003 1.10627636e-002 1.06493067e-002
      5.40702930e-003 -7.45201185e-002 1.14289140e-002 -1.31469930e-003
      2.93543730e-002 -4.40070443e-002 -8.69136956e-003 3.07419430e-003
      -7.13619292e-002 5.98640786e-003 -1.71380918e-002 -5.03627211e-003
      -9.87534225e-003 1.10400915e-002 -7.20477030e-002 2.84482483e-002
      3.29185501e-002 1.32339802e-002 2.83937380e-002 5.52373193e-003
      -5.32658622e-002 -6.04160205e-002 1.10098571e-002 1.72303559e-003
      3.27666034e-003 -4.21417132e-002 2.40845885e-002 2.04974487e-002
      -2.60055764e-003 -7.65815494e-004 1.49778705e-002 1.59558970e-002
      -2.82997359e-003 1.38892205e-002 1.81993172e-002 2.86776181e-002
      1.98791288e-002 -5.15880808e-003 -4.61187074e-003 1.85243916e-002
      -7.15266634e-003 2.51845047e-002 -2.86924228e-006 3.38837318e-002
      4.51936480e-003 5.34490962e-003 1.81465298e-002 -3.69306132e-002
      4.08930779e-002 -7.89300632e-003 5.13169728e-002 1.85584126e-003
      1.69519763e-002 -3.47813480e-002 3.49792019e-002 4.13916976e-004
      -4.54921164e-002 1.00594647e-002 -2.09962167e-002 4.77610789e-002
      4.84098531e-002 1.24329487e-002 3.23790722e-002 1.27437524e-002
      1.17883328e-002 -6.44298643e-003 -3.30350967e-003 2.31168587e-002
      -7.08431751e-002 1.87087562e-002 6.41443348e-003 1.49990581e-002
      -1.11423973e-002 3.13315424e-003 -4.96867709e-002 -2.50991946e-003
      3.07674780e-002 4.64881165e-003 -1.06178625e-002 2.49200463e-002
      -2.41772570e-002 1.54705560e-002 -8.69759731e-003 2.98593123e-003
      -9.59699601e-003 1.27287051e-002 -4.03065840e-003 1.74649358e-002
      -4.86222934e-003 1.42075690e-002 5.90774650e-003 -3.86020578e-002
      2.53575202e-002 0. 4.38543595e-002 4.02824767e-002 2.36185156e-002
      2.07363050e-002 -2.71927509e-002 3.20710614e-003 -3.49608585e-002
      -7.97718763e-004 3.10373995e-002 -1.52645251e-002 -4.56010411e-003
      3.55268754e-002 -2.53050402e-003 7.04489276e-003 3.95557657e-003
      6.00042928e-004 -1.18048219e-002 1.23129738e-002 1.13769779e-002
      -1.21896043e-002 1.21415947e-002 1.48738157e-002 1.22859478e-002
      -3.14617588e-004 -1.64313801e-002 -3.91714536e-002 3.56032886e-002
      1.63089484e-002 2.83154715e-002 7.92760681e-003 -2.35711224e-002
      7.56887207e-003 1.68508887e-002 9.84394457e-003 2.08030343e-002
      1.14710424e-002 3.59192048e-003 1.61049198e-002 2.24431921e-002
      -2.55669095e-002 2.51417123e-002 7.74059072e-003 -1.42982760e-002
      1.05425129e-002 1.41681302e-002 -3.66166309e-002 1.80454589e-002
      1.80528052e-002 1.20884497e-002 9.95251071e-003 -3.29601169e-002
      1.76418817e-003 2.39162873e-002 6.18279492e-003 -7.69191654e-003
      -4.05797036e-003 1.69974305e-002 -4.98947548e-003 1.71930611e-003
      1.55804178e-003 1.75443906e-002 1.86763927e-002 -1.05216904e-002
      1.63968578e-002 1.55344382e-002 -2.78898198e-002 -4.06531282e-002
      5.11536375e-003 -3.44937779e-002 1.56564098e-002 2.08945945e-002
      2.95208488e-002 -8.65673870e-002 1.53166587e-002 1.09507274e-002
      5.21826698e-003 -1.28785637e-003 -3.56446728e-002 -4.42743823e-002
      1.97729748e-002 -5.33307670e-003 2.44849306e-002 1.40337311e-002
      5.73736615e-003 -3.41853760e-002 7.16848392e-003 -1.80598106e-002
      8.71892646e-003 1.27600422e-002 -6.42305054e-003 -1.71376839e-002
      1.53042842e-002 -6.75823763e-002 9.99094173e-003 2.30375994e-002
      -6.60787299e-002 2.39600847e-003 1.27000818e-002 -6.17502928e-002
      2.52531432e-002 5.77202626e-003 1.16515709e-002 -6.46364689e-003
      5.35979168e-003 -2.43684687e-002 2.27899216e-002 -2.65573431e-002
      3.59374308e-003 -1.51090575e-002 1.15951281e-002 7.97117967e-003
      5.37581258e-002 -2.53036264e-002 3.49417212e-003 6.31758850e-003
      -1.24004157e-003 8.39600689e-004 1.98890921e-002 -1.29534826e-001
      -6.35324046e-002 -1.87825449e-002 2.80920733e-002 -3.92648131e-002
      1.86169613e-002 6.82072341e-003 1.07642934e-002 7.77291646e-003
      7.47797685e-003 1.45146716e-002 3.70698348e-002 1.69078987e-002
      2.55640317e-002 1.00901099e-002 -1.17910281e-002 5.36867045e-003
      -2.78681796e-002 8.85062013e-003 5.53029329e-002 -6.29893020e-002
      5.70277963e-003 -7.90271629e-003 7.46635068e-003 -1.68617554e-002
      -4.78021838e-002 -3.43561172e-002 6.23014616e-003 4.16688947e-003
      7.91233033e-003 5.44721400e-003 3.20877247e-002 1.49647426e-002
      -2.29702387e-002 3.02699320e-002 -5.15726805e-002 1.60891004e-002
      9.71843256e-004 -1.02379732e-002 1.15551590e-003 -6.46978840e-002
      -2.81512830e-002 -1.03654139e-001 1.36606926e-002 -5.34980372e-002
      1.63365565e-002 5.64531330e-003 2.74062548e-002 2.97135245e-002
      2.61681899e-002 1.53198577e-002 1.80789512e-002 1.93146653e-002
      6.48511853e-003 5.09448908e-003 2.11803671e-002 7.76102883e-004
      -8.63204971e-002 1.76451374e-002 6.70370366e-003 6.08884788e-004
      -1.08244851e-001 1.26019968e-002 6.61516376e-003 -5.82561595e-003
      -5.16174249e-002 2.37127487e-002 1.62195787e-002 1.56924152e-003
      -1.22204628e-002 4.90846485e-003 -3.65971494e-003 2.03460152e-003
      4.65726964e-002 1.06245922e-002 1.32808257e-002 -3.95756494e-003
      3.61857750e-002 1.05093550e-002 2.22571995e-002 1.34255653e-002
      2.54560150e-002 5.86582627e-003 2.53341664e-002 -3.89522407e-003
      -6.16023205e-002 5.11929989e-002 -6.94648400e-002 6.96377177e-003
      7.88907427e-003 -5.70879951e-002 1.28909275e-002 6.11617137e-003
      2.85401344e-002 1.94240559e-003 6.63944334e-003 2.03418713e-002
      2.45454367e-002 1.80882756e-002 4.97115916e-003 3.71766905e-003
      1.63352899e-002 -1.42859882e-002 4.69529033e-002 -1.92954782e-002
      -2.55250968e-002 -1.08166235e-002 6.73914608e-003 1.62221864e-002
      4.46883542e-003 6.64771535e-003 -1.79436654e-002 2.23017465e-002
      -1.16582185e-001 0. 3.02282441e-003 2.30327938e-002
      2.91897394e-002 1.62011347e-004 1.62437819e-002 1.11923553e-002
      -1.28336260e-002 1.71259902e-002 4.32019169e-003 9.94036323e-004
      1.23102143e-002 -9.02741565e-004 9.17792693e-003 -5.56591339e-003
      1.05871735e-002 3.82388160e-002 -1.62618607e-002 3.69654931e-002
      3.82801169e-003 -1.30993379e-002 2.14031003e-002 -2.55847387e-002
      1.00538507e-002 -9.44302697e-003 1.54875440e-003 -5.48013523e-002
      4.90376493e-003 -3.82730998e-002 2.41552703e-002 1.52319018e-002
      2.45642215e-002 2.17076056e-002 7.66540924e-003 1.60681102e-002
      2.19552591e-002 1.39593491e-002 -7.05298558e-002 3.06657460e-002
      3.76632810e-002 4.06475104e-002 -2.35997438e-002 2.05727350e-002
      6.54335832e-003 4.33091372e-002 2.43632100e-003 2.42196191e-002
      1.32002158e-003 2.45034415e-002 4.97546978e-003 3.66561264e-002
      2.53482368e-002 5.30511094e-003 3.80792543e-002 1.94720901e-003
      9.46245529e-003 4.21885327e-002 1.64648388e-002 4.70174849e-003
      9.51720867e-003 1.82651747e-002 3.07432767e-002 -2.14482821e-003
      3.70857376e-003 -4.93140658e-003 4.09412570e-002 1.05493749e-003
      -1.17856581e-002 -1.48023348e-002 3.88996396e-003 -5.18118925e-002
      2.65116636e-002 1.56447180e-002 -2.79049836e-002 -2.29467303e-002
      -7.08719110e-003 -1.85539003e-003 9.78373457e-003 1.09485881e-002
      1.35937044e-002 1.49369864e-002 -3.01080346e-002 2.79953443e-002
      -3.38898897e-002 -1.12482896e-002 1.35482727e-002 -6.35901019e-002
      -3.39100324e-002 7.76596926e-003 1.17386384e-002 -2.26200446e-002
      -6.18147328e-002 7.82580581e-003 1.16273575e-003 -5.61476126e-003
      -6.90902642e-004 6.48789993e-003 6.64795702e-003 -7.55269080e-004
      1.30090108e-002 1.10385623e-002 -1.77530032e-002 6.36957539e-003
      1.31429350e-002 2.36608237e-002 -5.51091786e-003 1.70007832e-002
      4.79428992e-002 2.39158869e-002 2.67434511e-002 1.96605977e-002
      1.94294483e-003 1.97492377e-003 -6.00619614e-002 6.53306954e-003
      3.21993344e-002 -5.26030408e-003 8.10778607e-003 -5.89457043e-002
      1.61100328e-002 3.74157121e-003 0. -1.28368689e-002
      1.37328096e-002 1.61461486e-003 1.40118469e-002 -1.90095115e-003
      3.05838138e-002 1.61498412e-002 1.08993631e-002 3.46561633e-002
      -4.12759483e-002 3.09540834e-002 4.03768197e-002 1.29965581e-002
      2.64738444e-002 2.74362955e-002 4.49327454e-002 1.08711757e-002
      2.29361709e-002 2.43750643e-002 3.68768978e-003 -7.51562044e-003
      1.96592826e-002 6.68382598e-003 2.17390582e-002 1.29510779e-002
      8.59907959e-005 1.05019407e-002 -4.85970592e-003 3.14092566e-003
      -3.17268223e-002 4.65720706e-003 -1.17767509e-002 7.17279688e-003
      2.52838563e-002 -2.60681473e-002 8.11444502e-003 -6.07697852e-002
      -7.30262278e-003 2.09949054e-002 2.99327541e-004 1.04410155e-002
      7.98401702e-003 2.04031058e-002 1.69263687e-002 1.69502627e-002
      3.56754400e-002 2.07663025e-003 1.16125502e-001 1.34867569e-002
      1.09706707e-002 -3.12757748e-003 1.82626713e-002 3.81811857e-002
      -1.44888069e-002 1.20095452e-002 9.48339887e-003 1.39986472e-002
      3.28762121e-002 -6.06037444e-004 -3.39829712e-004 5.01903100e-003
      1.74075160e-002 2.34706979e-002 1.06457341e-002 -1.26096770e-001
      -8.59293714e-003 -2.03052964e-002 1.81473251e-002 1.48390960e-002
      1.67270992e-002 6.85742730e-003 -1.10079162e-002 3.11135855e-002
      -3.74169946e-002</_></support_vectors>
  <decision_functions>
    <_>
      <sv_count>1</sv_count>
      <rho>-9.9214842728138131e-001</rho>
      <alpha>
        1.</alpha>
      <index>
        0</index></_></decision_functions></my_svm>
</opencv_storage>
