<?xml version="1.0"?>
<opencv_storage>
<my_svm type_id="opencv-ml-svm">
  <svm_type>C_SVC</svm_type>
  <kernel><type>LINEAR</type></kernel>
  <C>1.</C>
  <term_criteria><epsilon>2.2204460492503131e-016</epsilon>
    <iterations>1000</iterations></term_criteria>
  <var_all>1000</var_all>
  <var_count>1000</var_count>
  <class_count>2</class_count>
  <class_labels type_id="opencv-matrix">
    <rows>1</rows>
    <cols>2</cols>
    <dt>i</dt>
    <data>
      -1 1</data></class_labels>
  <sv_total>1</sv_total>
  <support_vectors>
    <_>
      5.36744529e-003 -2.63482854e-002 -1.66398119e-002 4.81991656e-003
      4.10173181e-003 6.86311210e-003 2.29808297e-002 3.44161503e-003
      -1.60611272e-002 1.92817654e-002 -3.48853297e-003 -9.15633887e-003
      -1.61687154e-002 -8.01439956e-003 6.98140636e-003 7.56045897e-003
      -1.40536726e-002 -5.13455551e-003 6.36331923e-003 5.33282571e-003
      -2.62819720e-003 8.56243074e-003 -1.23214480e-002 1.09607028e-002
      -1.44302882e-002 -2.90952753e-002 -2.96628959e-002 8.82174005e-004
      3.65660014e-003 2.46558734e-003 -1.70720089e-002 -1.03621837e-002
      -1.62893382e-003 1.71207462e-003 2.67059878e-002 9.42621753e-003
      5.44908270e-003 1.46542834e-002 -1.05714956e-002 7.95860589e-003
      -3.37585807e-003 -9.38885380e-003 -1.36087406e-002 1.49777150e-002
      -3.15860403e-003 3.12471855e-003 1.84589271e-002 -1.27745531e-002
      1.84301436e-002 1.66363195e-002 1.05698565e-002 1.01663591e-003
      1.06574697e-002 -1.40113663e-002 -1.61210820e-002 -3.58458683e-002
      1.81410424e-002 4.48993756e-004 6.17923494e-003 -9.25263669e-003
      -1.20671866e-002 1.87097881e-002 -1.88286323e-002 -1.78813618e-002
      -3.76055483e-003 -9.75731853e-003 -2.01009661e-002
      -3.87606374e-003 4.00896147e-002 -4.36956435e-003 1.11153293e-002
      3.94381396e-002 1.39825715e-004 1.05622169e-002 1.31811136e-002
      -2.53397282e-002 1.16770109e-002 1.57314297e-002 2.89990380e-003
      -1.72385350e-002 3.88205759e-002 1.33665809e-002 -3.15489480e-003
      -3.16698663e-002 -1.94954444e-002 -1.54025224e-003
      -2.19056965e-003 1.49624899e-003 4.46448568e-003 1.36147272e-002
      3.75531451e-003 -1.34632457e-002 1.44576386e-003 -1.15426043e-002
      -2.37694569e-002 -8.32217839e-003 2.88765170e-002 -2.38060411e-002
      3.58835934e-003 1.91721879e-002 7.12430221e-004 2.86014862e-002
      5.71277738e-003 6.43807184e-003 1.50149465e-002 4.17498965e-003
      2.49646101e-002 2.77583618e-002 -3.37011069e-002 -4.04234137e-003
      7.51386769e-003 1.54991425e-003 4.96540032e-002 5.18614240e-003
      -5.45348078e-002 1.24741986e-003 -2.07240898e-002 9.52851959e-003
      3.11188377e-003 3.05311382e-002 -3.60249216e-003 3.60644399e-003
      5.58294728e-003 1.96672021e-003 -1.80933960e-002 -4.76021087e-003
      -3.21534015e-002 1.45615432e-002 8.84449203e-003 1.29327569e-002
      1.90082751e-002 -3.35108079e-002 -7.36033265e-003 8.01522657e-003
      -1.13240769e-003 7.30899768e-003 -3.11154649e-002 1.06058922e-002
      1.72257610e-002 1.48359109e-002 -1.71166118e-002 4.66764346e-003
      -1.02616963e-003 -4.04014252e-003 1.75164398e-002 1.20251598e-002
      -1.54523328e-002 -9.16591147e-004 2.11086385e-002 7.07162870e-003
      1.50797600e-002 -6.10041432e-002 1.47779356e-003 -2.74847192e-003
      -6.00607088e-003 -2.70815939e-003 1.01580825e-002 3.61090526e-003
      -3.09864804e-003 1.41090518e-002 3.66006652e-003 1.73027683e-002
      1.18289292e-002 6.82324171e-003 -7.06205145e-003 8.90356582e-003
      2.79540755e-002 7.08608981e-003 -5.88409090e-003 -2.08762437e-002
      -1.49578257e-002 -2.82583851e-002 1.38877630e-002 3.59427207e-003
      1.81020660e-004 8.90384614e-003 3.09074880e-003 -5.61036449e-003
      7.68443756e-003 4.30103801e-002 5.60833840e-003 1.22602116e-002
      -1.52560500e-002 1.34485597e-002 -4.01235593e-004 2.18006652e-002
      5.77541208e-003 8.53434112e-003 -1.83728710e-002 1.38383918e-003
      -3.52519914e-003 -2.24461639e-003 -5.24943788e-003 6.78067375e-003
      1.41691435e-002 -2.00110283e-002 2.53215898e-002 1.17101455e-002
      -2.88257040e-002 1.71787832e-002 -1.33541394e-002 2.97569651e-002
      -2.17526983e-002 -1.85970161e-002 3.45688011e-003 -1.29948335e-003
      9.11886152e-003 -1.29870912e-002 9.29378718e-003 -2.04388034e-002
      2.00117342e-002 -6.04359782e-004 1.45354318e-002 3.43131716e-003
      4.88619041e-003 1.14974813e-004 -3.04407068e-003 -3.98913771e-003
      -7.03673810e-003 5.08153532e-003 -1.86399091e-003 -1.13578616e-002
      -1.84101798e-002 -1.20819127e-003 5.12651308e-003 -1.36799784e-003
      -2.08141212e-003 -1.52831059e-002 1.04222621e-003 -6.21527154e-003
      -1.92408953e-002 1.02246064e-003 2.38961745e-002 -6.81139808e-003
      8.19101185e-003 2.36759661e-003 1.40787587e-002 1.89505555e-002
      -2.43442669e-003 -2.57056132e-002 7.59868464e-003 -1.53735187e-002
      9.37066786e-003 3.82365100e-003 1.19516794e-002 -7.16814189e-004
      8.38077255e-003 8.25110171e-003 4.31405799e-003 1.09297568e-002
      2.97031458e-003 1.26228184e-002 4.07877378e-002 1.12866955e-002
      -6.98242337e-003 -1.25008933e-002 2.10110052e-003 6.38227677e-003
      7.32980249e-003 5.58345299e-003 -3.85138788e-003 1.10153519e-002
      -1.54492131e-003 -4.26074350e-003 2.20626183e-002 1.19526973e-002
      6.01367792e-003 1.85298212e-002 1.73055865e-002 1.89558137e-002
      -2.09500012e-003 -3.74148553e-003 -2.46469723e-003 4.19365279e-002
      3.46439853e-002 -2.39356160e-002 2.20485125e-002 6.20031590e-003
      -1.81733596e-003 7.94833526e-003 2.77076173e-003 4.93803388e-003
      3.38741802e-002 -2.08156649e-002 -2.27674320e-002 2.21442319e-002
      1.46081168e-002 -1.98368262e-002 3.11230160e-002 -4.44509933e-004
      1.23938201e-002 2.61223465e-002 1.77217810e-003 1.24497209e-002
      1.54352961e-002 -1.89282186e-002 2.49598781e-003 7.53789814e-003
      3.06500383e-002 -1.65890960e-003 7.80870393e-003 -2.38317586e-002
      -1.31598245e-002 -6.91302773e-003 2.71623489e-003 1.00105198e-003
      4.96350881e-003 -2.32266262e-003 -3.22000444e-004 -1.00397051e-003
      9.24608856e-003 7.63214519e-003 -2.75363401e-002 1.14348773e-002
      -2.36873757e-002 1.03915231e-002 -2.10660324e-002 -6.12379843e-003
      3.72263277e-003 8.25570896e-003 -4.73585688e-002 2.96472050e-002
      -1.69420093e-002 -1.29168313e-002 9.13292728e-003 1.15261609e-002
      -1.32615557e-002 1.04905730e-002 8.62609036e-003 -3.22245946e-003
      -3.70231504e-003 3.39648360e-003 -1.66139305e-002 -4.40729447e-002
      -2.63532624e-002 -7.52733881e-003 -2.96476930e-002 5.79597382e-003
      -1.84970535e-002 -3.25800036e-004 1.25428382e-002 4.94050048e-003
      1.22732613e-002 8.43126886e-003 -5.36365993e-003 -2.00598016e-002
      1.62596498e-002 -1.41719719e-002 2.23532636e-002 1.58541102e-003
      -2.71785562e-003 -1.60338660e-003 -5.92228537e-003 1.71394367e-002
      3.00749810e-003 1.70299332e-004 -5.41736325e-003 9.40600783e-003
      1.19659910e-002 -1.34830428e-002 -1.23075340e-002 1.96659435e-002
      -3.20849009e-002 -3.69475852e-003 7.14819692e-003 2.35070400e-002
      -3.88160069e-003 -4.33283634e-002 3.05820946e-002 1.39637990e-002
      -1.33872591e-003 3.66595807e-003 -7.78342923e-003 3.42480862e-003
      1.32725621e-002 -2.47334479e-004 3.35287005e-002 -1.31090749e-002
      2.02762932e-002 1.03060305e-002 -6.15590310e-004 4.24655713e-003
      -1.04728155e-002 -2.10714713e-002 -2.16730317e-004 2.62876153e-002
      4.63559665e-002 1.04737850e-002 2.89019812e-002 9.11760144e-003
      5.60068898e-003 4.02753853e-004 -1.18587464e-002 -1.70677342e-002
      -4.24702000e-003 -7.74918823e-003 -3.42399068e-002
      -1.20577859e-002 2.22025309e-002 1.49456579e-002 1.75979845e-002
      1.58109125e-002 -6.33789320e-003 -1.03201950e-002 1.56476884e-003
      4.94112354e-003 2.26748530e-002 -8.81072847e-005 7.75714114e-004
      2.46416545e-003 -6.03742898e-002 1.42963335e-003 -3.40072066e-003
      1.69968568e-002 1.55872824e-002 2.89696008e-002 6.83938706e-005
      -2.75934557e-003 1.30155096e-002 -1.94357019e-002 2.44869292e-003
      -5.10107819e-003 -1.15955959e-003 -2.78109796e-002 5.81819937e-003
      -9.86080058e-003 -1.83502771e-002 -5.31667545e-002 8.66674178e-004
      6.15222193e-003 7.31410459e-003 -2.97512729e-002 8.77913740e-003
      1.36241959e-002 1.41600380e-002 1.04161482e-002 2.08400078e-002
      1.07800392e-002 8.80404375e-003 6.38377992e-003 2.95230504e-002
      -1.15850614e-002 1.13749234e-002 9.84380674e-003 2.39205789e-002
      -3.48830335e-002 1.12620043e-003 2.29231771e-002 2.03256439e-002
      1.44013064e-003 6.18773978e-003 -1.11660557e-002 -1.78017933e-002
      -6.49041357e-003 -3.77674364e-002 -5.15748141e-003
      -9.66590177e-003 -1.70930605e-002 1.08069312e-002 5.62828174e-003
      4.70462674e-003 -2.20874548e-002 -1.20702330e-002 -1.94297079e-002
      1.79165285e-002 -4.91074808e-002 6.30163448e-003 1.06749320e-002
      -7.88663514e-004 2.92490539e-003 -1.87373906e-002 4.74991603e-003
      7.36934645e-003 6.79077581e-003 2.39501009e-004 -1.50481949e-003
      2.43917331e-002 -7.35101569e-003 6.98363874e-003 2.19183159e-003
      -1.55648729e-002 2.09629778e-002 -2.01741885e-002 5.27498126e-003
      -8.94973695e-004 8.79127719e-003 1.11490134e-002 -4.54972386e-002
      5.90764359e-003 9.17063747e-003 8.05320404e-003 1.99118294e-002
      -7.68173393e-003 1.29086971e-002 9.23606195e-003 5.82819944e-003
      -9.73481976e-004 2.52210889e-002 4.19938529e-004 -3.24349012e-003
      2.38469504e-002 1.27898832e-003 7.58484704e-003 -2.39463113e-002
      -2.22531352e-002 3.29813058e-003 2.59048995e-002 -1.22885900e-002
      1.17632868e-002 -1.61581952e-003 1.14046363e-002 -2.12090928e-002
      -3.88154201e-002 1.18923723e-004 9.51751973e-003 -3.90461273e-003
      3.41613288e-003 2.74214917e-003 -1.94598120e-002 -2.87371338e-003
      -1.92352887e-002 -7.16364663e-003 -1.92657392e-002
      -8.80269893e-003 -2.91847042e-003 3.00515369e-002 3.37183885e-002
      6.04913663e-003 -8.85464400e-002 1.30120628e-002 -2.69739330e-002
      -9.63203609e-003 1.63660869e-002 -3.27690272e-004 6.67412905e-003
      -5.10119321e-003 6.72147144e-003 -8.38901568e-003 -3.74825229e-003
      1.40996440e-003 1.56983156e-002 9.34363995e-003 -1.02085499e-002
      4.98237927e-003 -1.71624832e-002 2.70991568e-002 1.87088118e-003
      7.61837093e-003 1.13796694e-002 -4.06133756e-002 2.97158165e-003
      6.28209766e-003 8.31478182e-003 -1.15168607e-002 -5.83767018e-004
      -2.94321892e-003 3.90141457e-003 1.16080418e-003 -3.40392962e-002
      2.06668489e-002 1.15319099e-002 -2.53857225e-002 -4.38195793e-003
      -7.55060045e-003 6.98519405e-003 -4.41588741e-003 1.07669998e-002
      7.92675745e-003 2.47741994e-002 5.42436400e-003 3.16173770e-002
      5.88173699e-003 -9.40121152e-003 -6.92685917e-002 -5.03207906e-004
      -1.21196425e-002 0. 6.89077377e-003 -7.90415797e-003
      -3.22858132e-002 -2.65277401e-002 1.28294034e-002 1.59828626e-002
      -1.14290006e-002 9.40979400e-004 -2.51884833e-002 -6.41846051e-003
      -1.84588693e-002 5.80398738e-003 -1.24552594e-002 -2.73702182e-002
      8.63964763e-003 -1.70974098e-002 5.83586749e-003 -1.50801102e-002
      -1.42442831e-003 -1.28748221e-002 1.34956483e-002 -3.17049995e-002
      -2.65144166e-002 4.64444496e-002 -1.29659416e-003 2.98311911e-003
      3.79508408e-003 -1.33077763e-002 -7.34772068e-003 -1.42724030e-002
      2.82026585e-002 -8.68076738e-003 2.16637757e-002 7.50536798e-003
      1.33294044e-002 -2.82246410e-003 -8.86115897e-003 -1.90763932e-003
      9.48082842e-003 2.49038134e-002 -2.06581526e-003 -1.82337053e-002
      3.10608204e-002 8.04170314e-003 -2.05785967e-002 2.64995382e-003
      4.89378581e-003 -9.64492653e-003 1.89351951e-004 -1.24948309e-003
      2.02557947e-002 -2.22999230e-002 1.75095126e-002 2.24995869e-003
      -5.14262001e-006 4.40704683e-003 3.02557237e-002 -1.05119534e-002
      -3.23767662e-002 -4.63413708e-002 -4.31521889e-003
      -7.66022550e-003 1.55107798e-002 -7.35935848e-003 1.08311009e-002
      6.64856099e-003 9.01988428e-003 1.92192458e-002 6.72641024e-003
      -2.23121885e-002 3.17967078e-003 -6.78773830e-003 -1.62565280e-002
      2.75105960e-003 -2.13995464e-002 2.52841134e-003 2.84847505e-002
      -8.16697720e-003 -2.26100273e-002 4.45802277e-003 2.45135440e-003
      -4.07376327e-003 -8.92976485e-003 -5.67387370e-003
      -1.33619942e-002 1.92723311e-002 -3.82844871e-003 9.67442896e-003
      1.92370370e-003 1.10384710e-002 -5.64560946e-003 9.18512791e-003
      1.40329553e-002 9.36273206e-003 -3.55045591e-003 4.77438513e-003
      3.29510146e-003 7.27438484e-004 -1.31943496e-004 7.10556470e-003
      -1.10760164e-002 5.39883832e-003 -1.20431734e-002 1.07639085e-003
      -3.26358378e-002 -1.92529634e-002 5.28185861e-003 -7.96972308e-003
      -2.64832117e-002 -2.95995567e-002 4.68518119e-003 1.04913563e-002
      -1.27820410e-002 2.30013765e-002 1.00763766e-002 -6.27749041e-003
      -8.94394517e-003 9.30975471e-003 -1.15857581e-002 -1.27826296e-002
      -7.91020133e-003 -1.88278630e-002 7.57842325e-003 -4.27249484e-002
      1.35285594e-003 1.81206707e-002 4.55679698e-003 1.17265212e-003
      -6.42677769e-003 1.68411038e-003 4.87705780e-004 -3.61130163e-002
      1.64043400e-002 1.26004685e-002 -2.22861879e-002 -1.95382889e-002
      -1.52668310e-002 6.66739559e-003 9.98243410e-003 3.47421598e-003
      6.53306581e-003 -2.75077671e-002 1.12822065e-002 3.03749903e-003
      -1.23040546e-002 3.74484397e-002 3.70092108e-003 2.00632829e-002
      1.42804696e-003 2.56583304e-003 -1.36258267e-003 1.63601693e-002
      -6.18607664e-005 2.28362456e-002 4.75103036e-003 -1.42390214e-004
      -8.78299034e-005 2.37669796e-002 -1.88833438e-002 1.12587924e-003
      -1.32768573e-002 -1.04155601e-003 2.85788067e-003 2.62229312e-002
      1.95718394e-003 7.64475262e-004 -1.89694706e-002 -2.15316825e-002
      -4.85853478e-002 5.09167183e-003 3.37417441e-004 -1.31967794e-002
      1.80954859e-003 -1.75316557e-002 6.68784976e-003 2.02204399e-002
      -7.00440779e-002 3.88345611e-003 7.73381768e-003 1.20554036e-002
      1.20112775e-002 -8.91597942e-003 6.60383515e-003 -6.07865769e-003
      -3.49161890e-003 -3.42213176e-003 9.63995000e-004 -1.00501943e-002
      -1.06942281e-002 -3.53494572e-004 2.21630652e-002 -1.17121451e-002
      -2.67142756e-003 -3.75812175e-003 2.03562248e-002 1.33514302e-002
      -7.76434725e-004 8.14442243e-003 1.25795500e-002 3.24362963e-002
      1.29841557e-002 1.45620387e-002 -7.71691510e-003 1.65305305e-002
      8.82638805e-003 1.07078273e-002 -6.25062454e-003 -1.08550694e-002
      1.34815788e-002 1.29414499e-002 -4.04099002e-003 9.60804243e-003
      8.45751725e-003 7.02741323e-003 -5.04559791e-003 1.40544008e-002
      -5.21465950e-002 1.95959676e-003 9.04884562e-003 4.65138583e-004
      1.71059072e-002 1.47965327e-002 -8.61003343e-003 -5.61423693e-003
      -2.31960410e-004 -2.53738428e-004 3.72738428e-002 0.
      2.76303291e-003 1.36522865e-002 -1.31207984e-002 6.89495169e-003
      -6.67538773e-003 1.41052762e-002 -1.33629364e-003 -3.04526696e-003
      -1.42248543e-002 2.27828557e-003 2.44778674e-003 -3.52381845e-003
      -8.65864754e-003 -7.65313301e-003 -2.83521181e-003
      -5.65188602e-002 2.02762410e-002 -1.67565402e-002 -2.63228957e-002
      1.09021524e-002 3.79388360e-003 2.54082191e-003 -3.62321059e-003
      4.21193987e-003 -2.36991663e-002 9.18680895e-003 -3.07746567e-002
      2.01433469e-002 6.26316387e-003 -1.96292112e-003 2.04719063e-002
      1.84572078e-002 -1.31337587e-002 -3.97543535e-002 -2.72770748e-002
      -1.76428966e-002 6.58915087e-004 3.20263281e-002 1.83420330e-002
      -3.26657146e-002 -1.52795855e-002 1.94087951e-003 -5.19800792e-003
      9.04846378e-003 2.69647897e-003 2.71685738e-002 1.55925630e-002
      -1.60630029e-002 -6.04255917e-003 2.55066808e-002 2.73028985e-002
      -7.27082603e-003 -2.07925364e-002 3.06013674e-002 1.32672414e-002
      5.42473048e-003 -1.92110855e-002 1.33967912e-002 8.19416437e-003
      3.53973405e-003 2.03763284e-002 1.70706771e-002 3.48017015e-003
      -1.33169787e-002 -9.68420599e-003 -4.31616493e-002 2.36709975e-003
      1.69210173e-002 1.00912061e-002 3.24923755e-003 -3.90010625e-002
      -4.01163325e-002 2.93113408e-003 -1.18251529e-003 1.18506756e-002
      2.52654008e-003 -1.87611300e-002 -3.62814479e-002 -7.40814861e-003
      1.22954752e-002 4.97974176e-003 -4.38108183e-002 7.70436949e-004
      8.80110834e-004 1.39229568e-002 6.39735395e-003 1.08139068e-002
      -6.93843886e-003 1.85046939e-003 0. 2.22430248e-002
      -3.34115773e-002 -3.30164731e-002 1.78738981e-002 -1.08652432e-002
      9.89311561e-003 1.97699033e-002 -8.94856546e-003 -2.40169074e-002
      5.73133165e-003 1.37768360e-002 4.04441264e-003 4.40967362e-003
      1.39781898e-002 -1.04037644e-002 3.23759601e-003 4.23586406e-002
      -3.66108678e-002 -2.17234045e-002 -3.40437284e-004
      -5.89863025e-003 -2.65965723e-002 9.93457716e-003 5.24749164e-004
      1.95461325e-002 1.09091913e-002 -1.15214176e-002 -1.70310051e-003
      3.32478024e-002 -5.79528452e-004 8.17385211e-004 5.16989222e-003
      -1.51040228e-002 -8.37882143e-003 -2.11993176e-002
      -1.18754888e-002 -5.40680485e-003 2.11310666e-002 -1.24755790e-002
      2.55618319e-002 1.18931690e-002 4.18100413e-003 2.23189476e-003
      2.33873446e-002 -6.86092861e-003 1.33461729e-002 1.98093299e-002
      3.82643193e-003 1.92791442e-004 -2.07912885e-002 5.34585537e-003
      -7.64504913e-003 -1.19999461e-002 2.16780677e-002 -5.29597327e-003
      -1.36153093e-002 -4.53242008e-003 1.80790965e-002 6.91152550e-003
      -2.05348954e-002 -4.31123050e-003 -3.19934040e-002 9.95094609e-003
      1.76219773e-002 3.82718560e-003 2.73643783e-003 -3.25926323e-003
      5.95829077e-003 9.40279383e-003 2.67243143e-002 1.60333666e-003
      8.40148330e-003 -1.25013886e-003 -3.04150283e-002 -1.74585766e-005
      -2.78904173e-003 -3.41000222e-002 -3.54295829e-003 5.09514436e-002
      -1.00523885e-002 6.73884572e-003 -3.57766310e-003 3.13039869e-003
      3.66631635e-002 -8.26826971e-003 1.44488644e-002 -4.17429814e-003
      -5.93741052e-003 -5.58050629e-003 1.81170702e-002 4.04596608e-003
      -1.79772526e-002 1.37051204e-002 4.67829313e-003 -1.33715952e-002
      1.42373992e-002 -7.54728680e-003 -6.50296733e-003 -1.00421114e-002
      -9.29161813e-003 -6.16131397e-003 -3.25601641e-003
      -2.20294707e-004 -1.13862552e-001 5.26296534e-003</_></support_vectors>
  <decision_functions>
    <_>
      <sv_count>1</sv_count>
      <rho>-9.9517677840994367e-001</rho>
      <alpha>
        1.</alpha>
      <index>
        0</index></_></decision_functions></my_svm>
</opencv_storage>
