<?xml version="1.0"?>
<opencv_storage>
<my_svm type_id="opencv-ml-svm">
  <svm_type>C_SVC</svm_type>
  <kernel><type>LINEAR</type></kernel>
  <C>1.</C>
  <term_criteria><epsilon>2.2204460492503131e-016</epsilon>
    <iterations>1000</iterations></term_criteria>
  <var_all>1000</var_all>
  <var_count>1000</var_count>
  <class_count>2</class_count>
  <class_labels type_id="opencv-matrix">
    <rows>1</rows>
    <cols>2</cols>
    <dt>i</dt>
    <data>
      -1 1</data></class_labels>
  <sv_total>1</sv_total>
  <support_vectors>
    <_>
      -4.60989913e-003 9.52384435e-003 -9.01408028e-003 1.12065058e-002
      -1.71063747e-002 -4.36267862e-003 9.81391687e-003 1.16506908e-002
      2.07792372e-002 1.60863518e-003 8.93643778e-003 -2.82350113e-003
      5.05036768e-003 -1.98398065e-002 2.67050583e-002 1.54927885e-002
      9.83084459e-003 -1.54315485e-002 4.07500425e-004 5.49748121e-003
      5.16954111e-003 3.40907695e-003 1.72893368e-002 2.31837444e-002
      1.12932194e-002 -8.15130596e-004 1.37695521e-002 5.07859094e-003
      4.15595295e-003 -2.93171369e-002 -1.61623862e-002 2.41730902e-002
      2.92981248e-002 -1.08299339e-002 1.94201358e-002 -1.54647697e-002
      7.84169231e-003 3.32277874e-003 9.47572850e-003 -1.08054467e-002
      6.94489712e-003 -2.45460914e-003 1.41364029e-002 2.39735330e-003
      -3.34399939e-003 -3.55328829e-003 -5.29963411e-002 6.95613446e-003
      -3.91861238e-003 -4.77330945e-002 2.58380966e-003 -9.34774894e-003
      -4.90594935e-003 8.15143622e-003 -2.83730857e-004 -1.23406039e-003
      9.89868864e-003 -2.35531363e-003 1.38803450e-002 -5.55451736e-002
      9.52530466e-003 -6.14974312e-002 1.09188734e-002 -2.30539441e-002
      -2.33077388e-002 5.31226257e-003 -8.95834714e-003 1.61216129e-002
      5.27104083e-003 9.46210884e-003 -2.57360898e-002 -9.85199437e-002
      -2.64944974e-003 1.98484045e-002 3.54509545e-003 2.95731542e-003
      -5.14845457e-003 2.82090832e-003 1.86295563e-003 -5.36333886e-004
      9.14391596e-003 8.18715617e-003 9.83621832e-003 -5.21935290e-003
      3.83916474e-003 -9.81898326e-003 -1.45898918e-002 3.71737988e-003
      1.64488107e-002 8.76525883e-003 1.63390990e-002 7.75419176e-003
      1.15611376e-002 1.04818549e-002 -3.44708445e-003 6.05687639e-003
      6.33069919e-003 -1.61947485e-003 -2.32848842e-002 1.07410187e-002
      4.67800116e-003 4.08814885e-002 -5.49514666e-002 1.76794920e-002
      -6.76412974e-003 -2.22915062e-003 -1.38961803e-002
      -2.98346188e-002 1.66437577e-003 2.79306658e-002 -4.26252000e-003
      -4.02245894e-002 4.14406741e-003 6.19655894e-003 -9.01929382e-003
      1.55903297e-002 4.96077910e-003 3.00095491e-002 1.18233031e-002
      1.13547118e-002 -9.38883051e-004 -1.29460189e-002 -5.77308098e-003
      -2.06536073e-002 8.20511673e-003 -1.04546444e-002 1.13275312e-002
      -6.83860555e-002 1.83902942e-002 -1.25001324e-003 6.56517048e-004
      1.18007651e-003 -7.24599604e-003 7.92206638e-003 1.33515932e-002
      4.13721148e-003 4.10769647e-003 1.24714961e-002 -1.76249761e-002
      -5.15635200e-002 1.69455563e-003 1.35559598e-002 4.43696463e-003
      -9.94442496e-003 2.08113920e-002 1.13630416e-002 1.04252947e-002
      -2.05544345e-002 -8.84417538e-003 -2.24041212e-002
      -1.32653106e-003 -1.46900257e-002 4.28016623e-003 -1.88393500e-002
      1.98813737e-003 1.49535779e-002 -1.88932270e-002 -6.03729859e-002
      7.90961925e-003 2.34836955e-002 1.89854894e-002 -1.40999658e-002
      -9.27930791e-003 -1.64594594e-002 8.81088525e-003 3.31979105e-003
      1.33994203e-002 5.38199628e-003 -1.02026826e-002 3.69051215e-003
      1.23693410e-003 2.57952808e-004 1.56072166e-003 -1.52474288e-002
      -1.48588710e-003 1.46702742e-002 5.70475962e-003 1.08703822e-002
      5.90112060e-003 -6.68414384e-002 -2.48918701e-002 6.59155566e-003
      -4.70257970e-003 -1.05596287e-003 4.40041861e-003 -3.82863171e-002
      -2.62119379e-002 4.73589310e-003 3.21813263e-002 4.44209529e-003
      -1.44692212e-002 -4.99189878e-003 1.38088390e-002 -1.70893185e-002
      1.43802715e-002 -9.15072579e-003 1.05516054e-002 7.21010612e-003
      4.30766144e-004 2.17409665e-003 1.54424468e-002 1.90465548e-003
      1.11677423e-002 3.88500467e-003 1.09161902e-002 -5.64363645e-003
      -4.40008892e-003 7.37626338e-003 2.24007317e-003 1.96330696e-002
      -2.10863184e-002 -5.29262004e-003 9.75975022e-003 -8.80268868e-003
      -3.17517109e-002 5.84383029e-003 1.16733008e-003 7.40304240e-005
      -5.27816964e-003 -6.17636950e-004 1.19030066e-002 3.71793029e-003
      2.11992785e-002 2.68467404e-002 7.81194353e-003 -2.70729642e-002
      -1.59313697e-002 -1.11116404e-002 -6.59405142e-002 1.32828159e-002
      2.58543226e-003 6.10079477e-003 -3.19504831e-003 -4.31803195e-003
      -3.36567941e-003 1.52969332e-002 -3.51051777e-003 1.43443691e-002
      6.57302001e-003 1.04991021e-002 1.33872749e-002 -4.73536439e-002
      -2.00071428e-002 -1.98835507e-002 -8.38889368e-003
      -1.53840301e-004 2.25218618e-003 -7.85624608e-003 -2.02967218e-004
      -3.91550995e-002 8.58970731e-003 3.23127117e-003 -6.38260618e-002
      1.82405543e-002 1.94438267e-002 6.62936189e-004 -2.14972557e-003
      -2.28661839e-002 2.83397809e-002 -2.56876857e-003 -9.18122754e-003
      5.47845988e-003 2.39921678e-002 1.08551243e-002 9.50904191e-003
      -2.60309642e-003 1.36974780e-002 3.42202373e-002 2.57344451e-002
      -1.39794219e-003 1.73541572e-004 -1.33015979e-002 -6.51068101e-003
      -3.65812555e-002 3.47606875e-002 -3.48273502e-003 1.30947940e-002
      2.33146939e-002 2.88606202e-003 1.03475582e-002 3.71048190e-002
      2.31788736e-002 1.92312598e-002 6.79741788e-004 3.67701356e-003
      -1.13456892e-002 -4.44196500e-002 8.58908053e-003 4.03734595e-002
      6.68989145e-004 1.70463007e-002 -7.06313970e-003 -2.79598217e-002
      -1.12306597e-002 -1.23494314e-002 1.03378436e-003 -4.94332635e-005
      -1.46092605e-002 1.05004366e-002 1.51697788e-002 9.27616563e-003
      2.22708620e-002 1.41192868e-003 6.33551879e-003 3.52813187e-003
      -8.88131093e-003 -3.77935660e-003 -1.66600551e-002 1.01272846e-002
      -9.46443249e-003 -1.62366144e-002 8.09161644e-003 -7.58892624e-003
      1.89555641e-002 -9.61777475e-003 1.27023393e-002 9.92982090e-003
      1.70116778e-002 -3.94031666e-002 -4.71764104e-003 -4.49061319e-002
      -3.12053431e-002 4.24096687e-003 1.09395515e-002 1.33621357e-002
      -5.48669789e-003 -3.73460934e-003 2.33321413e-002 1.84126180e-002
      2.87501197e-002 1.97470915e-002 -2.71731745e-002 2.51258403e-004
      9.50083951e-004 1.30877923e-002 9.99329612e-003 1.09775672e-002
      3.11396993e-003 2.65953485e-002 6.09215535e-003 -7.82774354e-004
      7.66701065e-003 -2.99308379e-003 5.03556430e-002 3.31009598e-003
      2.01671887e-002 -4.69038412e-002 1.10197850e-002 8.47063120e-003
      -1.61706575e-003 1.97912473e-003 -1.70929525e-002 -3.50660421e-002
      -1.75835062e-002 -5.08337980e-003 -6.37691934e-003
      -2.33640010e-003 5.02506737e-003 3.17400112e-003 3.78757296e-003
      1.95431821e-002 -1.94750784e-003 4.41925926e-003 1.47572933e-002
      -2.28194077e-003 -8.46336968e-003 2.06311583e-003 7.94331077e-003
      -1.15324631e-002 7.12124864e-003 -8.22457671e-003 4.73871641e-003
      -6.42777188e-003 3.55375349e-003 -2.09367182e-003 1.05711624e-004
      -3.26028490e-003 6.61978079e-003 3.15491445e-002 1.97072271e-002
      1.94956607e-003 -1.61975399e-002 4.26177727e-003 -7.16277119e-003
      -6.93264604e-002 1.00435012e-004 6.86208531e-003 -6.24620356e-003
      -1.13450438e-002 -1.50130885e-002 -8.21208674e-003 3.44487117e-003
      -1.28209521e-003 6.26433082e-003 7.33741373e-003 1.01129180e-002
      6.66671200e-004 1.11600729e-002 7.90672936e-003 -5.20195737e-002
      1.03592305e-002 -5.80374664e-003 5.16787218e-003 1.20943952e-002
      1.41808819e-002 -6.40485343e-003 -4.35049366e-003 -2.46014986e-002
      -2.29569874e-003 1.87098384e-002 8.90471879e-003 1.00630289e-002
      5.58533939e-003 2.53298935e-002 -1.46298949e-002 -1.46274315e-002
      -6.41984679e-003 5.82379289e-003 2.46280730e-002 8.62088241e-003
      -2.09812112e-002 -1.68683100e-003 1.06138242e-002 1.90087166e-002
      -1.53941745e-002 9.09727998e-003 1.26955053e-002 -1.74961041e-003
      -5.18525355e-002 -9.50610638e-003 -7.05591287e-004 3.60060111e-002
      -7.15353154e-003 1.03459600e-002 9.07395128e-003 1.26486728e-002
      1.30894706e-002 -1.81964841e-002 1.01803774e-002 9.09426436e-003
      1.28627510e-003 3.33646568e-003 5.55684138e-003 9.99087095e-003
      -1.54125094e-002 6.01268653e-003 -2.06320290e-003 -9.20049660e-003
      -1.15656061e-002 -6.32847520e-003 -3.70329171e-002
      -1.14740652e-003 -5.90423634e-003 2.37421226e-002 -1.44994473e-002
      2.41693724e-002 -1.23688625e-002 1.62933115e-002 2.84919352e-003
      -2.90945428e-003 6.95845298e-003 -2.74770730e-003 -1.42128719e-002
      1.14216767e-002 -1.57036260e-001 1.95423830e-002 3.06935739e-002
      1.59976799e-002 -1.49134337e-003 -1.55434459e-002 1.77730732e-002
      -6.87388005e-003 -5.48148062e-003 1.81348249e-002 1.71700120e-002
      1.23478826e-002 2.20774040e-002 1.27366781e-002 6.97363587e-003
      3.35992221e-003 -3.28034349e-002 2.80127674e-003 8.45171139e-003
      6.87674060e-003 -1.30271092e-002 2.35019065e-002 8.42001289e-003
      2.81029101e-003 5.79516077e-003 -1.19590983e-002 8.42243619e-003
      1.36633646e-002 5.86394407e-003 -2.65939385e-002 -1.90227125e-002
      -2.03223545e-002 8.65016785e-003 8.34562071e-003 8.33552983e-003
      -1.61049347e-002 8.16074852e-003 3.10195461e-002 1.88876577e-002
      1.07900072e-002 1.63162835e-002 2.05392744e-002 -1.27609139e-002
      7.79605797e-003 -2.35631205e-002 1.25030465e-002 2.26523224e-002
      1.13390982e-002 -1.56971980e-002 -4.24708240e-003 -1.88522600e-002
      6.77031989e-004 1.57379676e-002 -3.20324930e-003 6.74849981e-003
      -4.37717000e-003 -1.00291905e-003 1.67811364e-002 1.05322087e-002
      -2.81521352e-004 1.99711118e-002 -9.11327731e-003 2.19783727e-002
      3.67101212e-003 5.61579783e-003 -7.83163309e-003 2.95160426e-004
      2.15794379e-003 -1.64958574e-002 -5.13790455e-003 1.29542928e-002
      -9.63565242e-003 5.16827498e-003 1.87629368e-003 3.50932293e-002
      2.33974718e-002 -2.07409039e-002 -8.96657910e-003 9.81390383e-003
      -7.52575696e-003 1.49927801e-003 1.95720326e-002 -8.39260931e-004
      -2.85388599e-003 -6.08988805e-003 -1.70564093e-002 2.04703193e-002
      -1.11652678e-002 4.20649629e-003 1.81658231e-002 -5.89190563e-003
      9.49141569e-003 9.14435647e-003 -1.62875094e-002 1.12530869e-002
      -4.38975915e-003 -8.52050353e-003 1.64605603e-002 -2.39832487e-004
      1.11325104e-002 8.32987111e-003 -2.05928050e-002 -5.31534851e-003
      7.16888020e-003 -6.62179431e-003 6.62941812e-003 -5.99970780e-002
      -6.09292067e-004 1.59560740e-002 4.98535926e-004 -1.43414345e-002
      2.43644621e-002 0. 9.29570291e-003 6.75450359e-003 1.51773719e-002
      8.02753214e-003 -2.10705735e-002 -3.62356156e-002 -2.54944637e-002
      -1.42151909e-002 2.96395291e-002 -5.84952207e-003 9.45653592e-004
      1.06435353e-002 -1.19786719e-002 1.25256842e-002 -3.35258828e-003
      1.46196876e-003 6.00949861e-003 2.47554621e-004 -9.95559338e-003
      -7.94324651e-003 5.87455230e-003 -4.47417749e-003 -2.52809637e-004
      2.09219218e-003 1.23605877e-002 2.98495274e-002 3.68365622e-003
      -2.74502672e-003 -5.69434778e-004 1.76330470e-002 6.12702686e-003
      9.86415520e-003 1.34052951e-002 5.08671999e-003 -4.97724377e-002
      2.09042337e-002 -4.11334913e-003 4.94311913e-004 -2.72601731e-002
      1.19880205e-002 1.14644542e-002 -2.06212024e-003 -2.69434066e-003
      -2.86057155e-004 1.21951299e-002 3.68569675e-003 2.41521578e-002
      1.12589356e-002 -4.21544835e-002 1.24986214e-003 -2.42471825e-002
      8.39969667e-004 -5.95182413e-003 -1.30011805e-003 2.21048668e-003
      -5.35704335e-003 -1.05485385e-002 1.37040764e-002 3.35728726e-003
      3.23495641e-002 -4.30416949e-002 3.47025855e-003 -5.23958728e-003
      1.28726605e-002 -2.67003160e-002 -1.31482827e-002 -2.60407086e-002
      4.19813860e-003 -4.20631878e-002 1.92480325e-003 -4.11602147e-002
      -3.33867338e-003 -8.56245123e-003 0. -8.88624042e-003
      1.42644439e-002 9.99481417e-003 6.37767557e-003 8.26330669e-003
      5.07175084e-003 1.11782188e-002 1.04057388e-002 -1.63183000e-003
      -5.45408158e-003 1.32373543e-002 -1.53595479e-002 5.53451944e-003
      -6.63511502e-003 8.50459468e-003 1.01527041e-002 -9.18614678e-004
      -1.28403232e-002 -9.03049298e-003 -2.20525754e-003
      -2.70747254e-003 1.39096444e-002 -5.94469067e-003 -4.37580980e-003
      5.68479393e-003 9.93407238e-003 -6.92743761e-003 -5.62987570e-003
      -4.68866900e-003 7.84726162e-003 1.57995056e-002 -2.17543053e-003
      -1.86978222e-003 5.53848501e-003 2.16415827e-003 -1.78687309e-003
      1.20294532e-002 1.92073379e-002 8.84442683e-003 1.49041275e-002
      1.46748470e-002 1.05790617e-002 1.25583299e-002 2.61659524e-003
      2.94713699e-003 7.24396016e-003 -6.20779116e-003 4.20297310e-003
      2.37862230e-003 8.03925283e-003 -4.17940803e-002 1.20553945e-003
      -1.47395709e-003 -9.33682825e-003 1.43214157e-002 2.07814090e-002
      6.98442059e-003 1.44658703e-003 -4.47663143e-002 -1.25447102e-002
      5.92758693e-003 2.49710828e-002 2.19222135e-003 -1.62917916e-002
      6.97325263e-003 -2.45302869e-003 -1.65179558e-002 1.08277323e-002
      2.44955858e-003 4.62164544e-003 8.15957785e-003 -6.14061439e-003
      8.88511166e-003 1.43966507e-002 5.22821397e-003 1.85776409e-002
      5.75968937e-004 1.35929566e-002 -1.62924044e-002 -1.64590068e-002
      3.00821615e-003 1.71926702e-004 1.63059775e-002 7.53939105e-003
      5.14430413e-003 -2.86766700e-003 -1.84937604e-002 1.36237051e-002
      3.19037284e-003 1.04141049e-002 -1.15583995e-002 2.68504652e-003
      4.57924092e-003 6.58374326e-003 -6.21682173e-003 1.06066582e-003
      4.47752792e-003 1.16871065e-003 -1.52186230e-002 -1.09494841e-002
      7.41286390e-003 1.45348040e-002 -1.58616705e-004 -1.48714636e-003
      1.27700716e-003 -1.46189481e-002 -6.53235521e-003 5.15071256e-003
      6.18725736e-003 -1.57016714e-003 6.69578044e-003 -4.22392925e-003
      -5.03570028e-003 8.21627676e-003 1.82271916e-002 1.65870804e-002
      2.30654702e-002 1.43477283e-002 1.19682839e-002 -7.86609575e-003
      1.19244587e-002 6.52724691e-003 8.03985260e-003 3.72717902e-003
      -2.98630446e-003 4.07114252e-002 -2.57283673e-002 -5.97399613e-003
      -2.01350395e-002 1.20596355e-002 1.21676950e-002 -3.65336612e-003
      -6.34443201e-003 -6.61581231e-004 -3.04666086e-004 1.56471431e-002
      -8.70653521e-003 4.76369029e-003 1.25306752e-002 -8.71304609e-003
      -7.81321060e-003 2.40555010e-003 1.63858384e-002 1.34878838e-003
      7.07424153e-003 1.31324690e-003 2.66380771e-003 2.33737770e-002
      1.59824193e-002 2.03059195e-003 2.29652859e-002 2.68102135e-003
      -3.88102531e-002 -8.49316828e-003 -1.93446176e-004 1.36258407e-002
      6.99239597e-003 1.13624977e-002 7.72694359e-003 1.35603128e-002
      -1.53527632e-002 4.46437066e-003 -2.75445101e-003 -3.39357113e-003
      -4.31310711e-003 2.52682529e-002 5.65951457e-003 2.15874352e-002
      7.63212144e-003 -6.03690138e-003 1.43130329e-002 2.98528578e-002
      -1.80596188e-002 2.94918544e-003 2.58129817e-002 -5.22516901e-003
      9.09829326e-003 -4.48503299e-003 9.37488279e-004 8.11711233e-003
      -1.46589782e-002 -6.40806369e-003 1.71250869e-002 9.91619751e-003
      2.05357242e-002 -1.22334585e-002 -3.84147372e-003 1.94420181e-002
      -1.20103685e-002 6.72871992e-003 -1.72959571e-003 1.72693171e-002
      -2.45429967e-002 2.83611682e-003 -6.89256471e-003 -6.78327074e-003
      5.89424139e-003 1.89272799e-002 -1.60282347e-002 -9.68075730e-003
      -9.84584820e-003 4.00778232e-003 4.55338415e-003 -3.84341702e-002
      -1.75326001e-002 -1.45919966e-002 1.58957858e-002 -4.71732172e-004
      1.29645877e-003 1.59006864e-002 2.23081908e-003 -4.29839274e-004
      -1.18263541e-002 -4.42236662e-002 7.23229535e-003 -2.38708989e-003
      -1.26117403e-002 1.02879759e-002 2.19182507e-003 -1.58567447e-002
      9.59167443e-003 -7.07007246e-003 5.64205879e-003 -2.66037905e-003
      -1.87919976e-003 1.56005449e-003 -1.54858166e-002 -1.15674280e-003
      -1.22677889e-002 -4.18378152e-002 7.50652631e-004 4.09975415e-003
      -5.70096541e-003 -2.86083482e-002 1.72653943e-002 -1.20082833e-002
      9.85477958e-003 -3.68572632e-003 -2.22884379e-002 1.91562343e-002
      -1.62944328e-002 5.40173147e-003 5.75758796e-003 0.
      2.68070847e-002 -1.82831977e-002 6.16147881e-003 -1.48089295e-002
      3.93696222e-003 5.38988179e-003 1.37342233e-002 9.38685983e-003
      -4.03809873e-003 -3.02615855e-002 1.22333122e-002 1.41962422e-002
      -3.35135981e-002 8.57682247e-003 -2.33376445e-003 -7.20221084e-003
      -9.02893138e-004 3.69074475e-003 8.96218512e-003 -2.07055290e-003
      -7.16990745e-003 2.93847267e-002 1.72757339e-002 1.44633849e-003
      -3.28677185e-002 9.81483143e-004 -1.63505934e-002 8.16158578e-003
      4.07161983e-003 3.71783599e-003 -7.99492560e-003 8.40082765e-003
      -1.77543461e-002 -5.46245184e-003 -4.18358576e-003
      -1.02429464e-003 -7.61455996e-003 -8.98041646e-004
      -8.50783288e-003 -1.72491428e-002 -3.60151491e-004
      -6.15083054e-002 -9.22697654e-004 1.73644833e-002 -3.08560836e-003
      -6.72630593e-002 6.44670290e-005 9.39196721e-003 8.19738768e-003
      8.61737877e-003 6.29821233e-003 -1.02238180e-002 -5.36153093e-003
      1.62957087e-002 1.38804791e-002 1.34404935e-002 2.74968687e-002
      -4.57676873e-002 1.11453161e-002 -2.21937866e-004 3.02003976e-003
      1.06050540e-002 -1.62367467e-002 1.77965350e-002 1.39178857e-002
      2.08808784e-003 6.11184910e-003 -3.96001415e-004 6.51377253e-003
      2.75108934e-004 -2.98903976e-003 1.79241411e-002 -3.57587412e-002
      1.02257198e-002 1.31360767e-002 2.22875364e-003 -6.19201316e-003
      -6.02846127e-003 -8.03658739e-002 -7.27093173e-003
      -4.12623733e-002 1.10249557e-002 -2.07625441e-002 -3.10195610e-002
      2.71576568e-002 -3.68095166e-003 5.11512393e-003 1.22797899e-002
      -6.95401430e-002 1.69280581e-002 8.94783065e-003 6.19075261e-003
      -8.54697172e-003 9.90186539e-003 1.70580745e-002 7.20397849e-003
      1.60915535e-002 -1.59553823e-003 9.99633456e-004 -6.98352698e-004
      -1.57546648e-003 8.01736210e-003 1.49170654e-002 1.81712620e-002
      8.68799258e-003</_></support_vectors>
  <decision_functions>
    <_>
      <sv_count>1</sv_count>
      <rho>-9.9866846922442631e-001</rho>
      <alpha>
        1.</alpha>
      <index>
        0</index></_></decision_functions></my_svm>
</opencv_storage>
