<?xml version="1.0"?>
<opencv_storage>
<my_svm type_id="opencv-ml-svm">
  <svm_type>C_SVC</svm_type>
  <kernel><type>LINEAR</type></kernel>
  <C>1.</C>
  <term_criteria><epsilon>2.2204460492503131e-016</epsilon>
    <iterations>1000</iterations></term_criteria>
  <var_all>1000</var_all>
  <var_count>1000</var_count>
  <class_count>2</class_count>
  <class_labels type_id="opencv-matrix">
    <rows>1</rows>
    <cols>2</cols>
    <dt>i</dt>
    <data>
      -1 1</data></class_labels>
  <sv_total>1</sv_total>
  <support_vectors>
    <_>
      1.80055089e-002 1.56758055e-002 3.71388323e-003 1.98202170e-002
      2.00292673e-002 1.36523256e-002 -9.57878307e-002 -4.26849183e-005
      3.45265791e-002 -2.45603677e-002 1.82146989e-002 8.97370372e-003
      1.18606854e-002 7.95624591e-003 1.08706132e-002 -4.44722213e-002
      1.02633620e-002 3.88389057e-003 2.08439818e-003 -5.07073186e-004
      -3.33161987e-002 -6.95270719e-003 2.99836937e-002 -2.30625756e-002
      -2.80603580e-002 -1.26660662e-002 5.35837328e-003 1.43859349e-003
      -1.52664317e-003 -1.63717680e-002 2.84494963e-002 2.38869321e-002
      -1.23054422e-002 8.07351992e-003 6.82600681e-003 -2.72157486e-004
      -3.18179950e-002 -8.83390103e-003 -9.24268737e-003 1.62516199e-002
      4.89941146e-003 -3.91630270e-002 -2.15985030e-002 7.21488241e-003
      -4.58119391e-003 2.71358853e-003 3.02994568e-002 1.56371761e-003
      4.54729656e-003 2.77035013e-002 2.20752019e-003 -2.55180039e-002
      6.42872136e-003 2.53813416e-002 2.07649674e-002 -1.95339997e-003
      1.60443522e-002 8.90054367e-003 1.21814506e-002 3.34942341e-002
      8.01294949e-003 2.77663004e-002 7.84650983e-005 7.15443725e-003
      2.03468967e-002 -7.32038170e-003 1.59463491e-002 -1.09497771e-001
      -3.45314629e-002 1.18955942e-002 1.50280083e-002 3.48545127e-002
      1.28458859e-002 3.45410407e-002 3.51106306e-003 -3.05229854e-002
      -1.26367286e-002 -4.45197746e-002 9.59230121e-004 8.23224802e-003
      -1.50100449e-002 1.44793652e-002 1.31664304e-002 8.75595957e-003
      2.79403175e-003 1.55306710e-002 -8.42250977e-003 -1.39098167e-002
      -3.19476761e-002 1.33426189e-002 1.31872641e-002 -3.50548998e-002
      7.98825361e-003 -1.48434509e-002 2.14249957e-002 8.15220922e-003
      2.82993191e-003 3.19464691e-003 3.90135944e-002 2.88168993e-002
      -1.17683418e-001 2.09874045e-002 2.21878793e-002 -5.37403859e-002
      4.62333020e-003 6.31696254e-004 -1.56648215e-002 5.19034965e-003
      2.33421568e-002 -1.21142250e-003 1.18915839e-002 1.70957912e-002
      -3.80605459e-002 1.76415518e-002 2.27548443e-002 -7.29634706e-003
      -3.29007697e-003 -7.30526075e-002 1.70806143e-002 2.38621794e-002
      1.41827641e-002 3.86216398e-003 -5.43395896e-003 1.76469106e-002
      -1.96335260e-002 1.52406767e-002 -9.37458652e-004 2.55426373e-002
      5.28406538e-003 -1.93785026e-003 2.85715312e-002 1.24009289e-002
      1.04715945e-002 2.74797576e-003 2.71997484e-003 1.42285172e-002
      -8.08224198e-004 -9.73540395e-002 2.40316242e-003 3.51191242e-003
      1.43432282e-002 1.03337262e-002 1.25487931e-002 9.24831536e-003
      -1.77203901e-002 -6.29433198e-003 1.07902009e-002 4.12395447e-002
      -2.84878677e-003 -1.02662472e-002 -2.83751898e-002 3.83929256e-003
      -2.07685516e-003 1.88268665e-002 2.69404370e-002 -1.96960475e-002
      1.13833332e-002 1.20606245e-002 4.98914346e-003 -7.80108124e-002
      1.13324160e-002 3.17341811e-003 1.35329049e-002 2.12188810e-002
      1.51051981e-002 5.59119787e-003 -9.92911588e-003 -1.50831444e-002
      -4.03466858e-002 1.08101210e-002 1.67869311e-002 -1.80617557e-003
      8.92496202e-003 -3.11667984e-003 6.61084289e-003 1.26678788e-003
      8.09084624e-003 6.78030495e-003 1.83477561e-004 -3.75780207e-003
      4.25684033e-004 -5.19002415e-002 9.56351962e-003 8.27582926e-003
      1.68835185e-003 -9.79919918e-003 1.14182346e-002 -2.11879215e-003
      4.19937037e-002 -4.51171286e-002 4.79915412e-003 1.50063168e-003
      -1.20953703e-003 1.12982616e-002 -2.01731431e-003 -1.24996351e-002
      4.99751605e-003 -1.51471305e-003 1.73670333e-002 4.91768727e-003
      2.15287823e-002 -8.46923981e-003 1.62395556e-002 3.47517850e-003
      -3.26899742e-003 -2.25514919e-002 -1.64354052e-002
      -2.93387775e-003 -5.99013036e-003 3.44630554e-002 -2.40660496e-002
      1.26591837e-002 -4.59545897e-003 -2.14882623e-002 2.73441561e-002
      -8.19751900e-003 6.76184148e-003 2.54959092e-002 -3.32554616e-002
      2.41235783e-003 1.60549153e-002 1.96716040e-002 -5.65753393e-002
      1.94530319e-002 -4.58579846e-002 4.49961657e-003 2.29804032e-003
      4.29793028e-003 9.27848462e-003 2.27332884e-003 1.01114088e-003
      -1.29204458e-002 1.49017600e-002 2.80341916e-002 1.19884405e-002
      1.08817052e-002 1.22335134e-002 1.98132712e-002 -1.18548551e-003
      1.56378001e-002 2.85607949e-003 2.48586312e-002 -8.60419497e-003
      1.87475756e-002 1.07648754e-002 3.24074272e-003 -2.86069941e-002
      5.45780873e-003 8.96234158e-003 -3.39988507e-002 -2.36228202e-002
      1.05335945e-002 -1.41221834e-002 2.71621700e-002 2.86360411e-003
      -2.71318406e-002 2.09959205e-002 -4.14775545e-003 6.23573130e-003
      1.34925675e-002 9.01633315e-003 -3.11375353e-002 9.95744951e-003
      -1.55556560e-001 1.32049304e-002 -1.50776468e-002 -3.66623364e-002
      -5.65834483e-003 9.25120059e-003 -3.08712889e-002 8.84943269e-003
      -3.49553972e-002 -4.60708328e-003 -5.21488488e-002
      -2.30379701e-002 6.52581966e-003 -1.11744655e-002 9.65623837e-003
      -4.75996546e-003 -1.30745813e-001 1.55498115e-002 -1.49916240e-003
      -1.98893845e-002 2.19180752e-002 1.27815148e-002 -1.31625857e-003
      1.69867650e-002 2.35130470e-002 -1.87020637e-002 1.11376345e-002
      -2.83567645e-002 -7.95856025e-003 2.31931787e-002 9.63704940e-003
      -1.47308325e-002 2.31734267e-003 -9.91704781e-003 8.71030986e-003
      3.27457371e-003 1.62015539e-002 -2.38561928e-002 -2.53679119e-002
      6.25619665e-003 9.11948457e-003 -7.95171130e-003 -2.65357606e-002
      -1.36866337e-002 8.85504112e-003 -1.49172666e-002 4.49810922e-003
      -5.24536998e-004 1.34417722e-002 1.53731070e-002 1.58999208e-002
      -9.08929098e-004 -4.47211005e-002 1.33070191e-002 2.56514475e-002
      3.97759788e-002 -3.71512771e-002 -1.57349892e-002 3.58877666e-002
      6.66004838e-003 1.27513446e-002 -2.16468759e-002 -1.83571428e-002
      1.32501842e-002 2.19749138e-002 -3.56598049e-002 -1.47584518e-002
      7.78265484e-003 4.32431474e-002 -2.14172732e-002 1.76203214e-002
      3.45076881e-002 1.39601845e-002 -5.21846442e-003 -1.42672379e-003
      1.43956263e-002 -4.10044305e-002 -3.19631733e-002 4.46552760e-004
      1.75562203e-002 2.86218524e-002 -4.63019460e-002 -1.46949454e-003
      -1.78268664e-002 1.80623531e-002 6.82071690e-003 -8.02614260e-003
      -1.29228365e-002 1.12823676e-002 1.19411293e-002 1.57179963e-002
      1.33187016e-002 8.00734572e-003 1.24468254e-002 -2.53628884e-002
      -4.07767855e-002 1.22586368e-002 5.07621234e-003 -1.48045933e-002
      2.02024984e-003 -1.42084656e-003 -6.04450554e-002 1.23244356e-002
      4.62393882e-003 1.02760084e-002 -1.93861276e-002 -7.23607279e-003
      3.80467810e-002 -1.31932553e-002 9.44194943e-003 -1.44651439e-002
      1.41652776e-002 2.36344133e-002 -1.62321776e-002 4.04828181e-003
      -4.64524664e-002 -1.17458066e-003 6.88375253e-003 3.22829485e-002
      6.51395787e-003 1.10542737e-002 2.48710644e-002 -1.03502072e-001
      1.77666906e-003 8.89345910e-003 -1.23144384e-003 -8.62115528e-003
      -3.04667186e-002 2.45167110e-002 1.07941665e-002 3.89161985e-003
      2.77054193e-003 -1.76265428e-003 1.95298791e-002 -8.72271787e-003
      4.60963201e-004 3.82344648e-002 -8.12320650e-005 7.83208385e-003
      1.10797528e-002 1.34574641e-002 2.06092726e-002 3.97753948e-003
      -8.76453072e-002 2.24950002e-003 1.27533088e-002 1.30663682e-002
      1.98759139e-002 7.61938188e-003 3.77343502e-004 5.70370676e-003
      6.92447461e-003 1.73254907e-002 4.97455662e-003 -4.95255738e-002
      8.24128557e-003 1.17129115e-002 4.07380834e-002 2.09034979e-002
      8.70200153e-003 2.30891202e-002 2.19790377e-002 2.92128660e-002
      -5.36521664e-003 5.21263480e-003 2.37477310e-002 1.33281155e-002
      1.45289646e-002 -3.94335948e-003 -2.18971050e-003 1.42064271e-002
      7.31907832e-003 -2.54034288e-002 -3.72278295e-003 -6.16585079e-004
      -7.39728361e-002 -2.59914752e-002 -8.55006557e-003 4.49817162e-004
      -9.27463174e-002 -2.61363629e-002 1.08604096e-002 -8.78750638e-004
      2.13206513e-003 5.09194145e-003 -2.93322373e-002 -6.31079776e-004
      1.50660072e-002 1.00154551e-002 1.77891161e-002 1.70352608e-002
      1.86500922e-002 -2.95295957e-002 2.03654971e-002 2.14611292e-002
      -4.35119320e-004 1.73424147e-002 -1.04431214e-003 1.64096430e-002
      1.97153986e-002 1.03667285e-002 5.43973083e-003 -1.36263743e-002
      -7.97023624e-003 -8.60658532e-004 -1.95504213e-003
      -4.76967692e-002 -9.08995047e-003 -1.86333992e-002
      -2.82006599e-002 2.86405850e-002 8.63845926e-003 -1.93748176e-002
      -3.30278315e-002 1.23959016e-002 -5.10994233e-002 1.79279468e-003
      2.25417279e-002 1.13572739e-002 2.99963430e-002 1.41536137e-002
      2.58014835e-002 -2.53299233e-002 2.32886392e-004 2.56557837e-002
      3.48678045e-003 1.29974252e-002 6.83563808e-003 8.48619547e-003
      8.91598314e-003 8.07112269e-003 -6.76074531e-003 2.10632682e-002
      -2.08420176e-002 -2.64799576e-002 -7.44572887e-003 1.56961959e-002
      -4.34479024e-003 -4.56908904e-002 -4.31548618e-003 7.33084232e-003
      1.18378215e-002 -3.66255939e-002 -1.92881078e-002 7.80697819e-003
      2.46814126e-003 -2.12055109e-002 -1.81439880e-003 1.35048460e-002
      2.05522068e-002 2.27234066e-002 1.02999797e-002 5.29518072e-003
      5.48501173e-003 -1.28000993e-002 -1.01724882e-002 4.56732232e-003
      6.88222609e-003 -1.44002363e-002 -3.98717960e-003 -7.98070878e-002
      2.45741606e-002 5.90333296e-003 -2.62812171e-002 -1.22786770e-002
      7.95672461e-003 7.48457713e-003 1.88978184e-002 1.76943168e-002
      8.52792803e-003 1.07141689e-003 1.29817110e-002 -7.09605291e-002
      2.94167921e-003 -5.81175042e-003 -1.80257801e-002 -8.33988003e-003
      -3.81449168e-003 -4.15482419e-003 -1.33306226e-002
      -1.18221873e-002 8.82501900e-003 -3.30771618e-002 8.44780938e-004
      1.17399776e-002 -2.95255892e-003 3.77884731e-002 1.41272899e-002
      -1.54425958e-002 3.97007633e-003 -1.26241604e-002 3.64706293e-002
      6.38987543e-003 -8.36653169e-003 3.77510535e-003 1.31960521e-002
      -2.15128437e-002 1.23173734e-002 -1.70990601e-002 -3.75018019e-004
      4.78650676e-003 -1.26062836e-002 8.64926539e-003 1.39523651e-002
      -1.76867414e-002 2.04966553e-002 6.09098002e-003 3.11681703e-002
      -2.88367718e-002 2.59089153e-002 1.52348438e-002 1.85976103e-002
      7.97941990e-004 0. 7.30394246e-003 9.78944730e-003 2.45687366e-002
      -1.21750468e-002 -1.29661541e-002 2.43348274e-002 -1.41793548e-003
      -1.82771273e-002 1.80300437e-002 1.46217039e-002 1.60373729e-002
      1.28799770e-002 2.78870743e-002 -2.79492699e-002 4.19759052e-003
      -9.36443219e-004 1.07729463e-002 2.08500717e-002 5.08561265e-003
      8.09557270e-003 4.18171287e-003 1.67061072e-002 1.26867583e-002
      -1.18734604e-002 -1.84779726e-002 -1.52683454e-002 5.79546625e-003
      4.48792096e-004 1.34694315e-002 -5.34873363e-003 1.88172143e-002
      -1.72885023e-002 -1.72607657e-002 -3.99198271e-002 1.35182189e-002
      2.34705303e-002 2.75588054e-002 5.27147611e-004 -1.02133599e-004
      1.21371057e-002 4.34372621e-003 1.63044035e-002 -3.11807990e-002
      2.01240666e-002 -5.03625546e-004 2.72717932e-003 1.71565842e-002
      2.63634995e-002 1.24332113e-002 4.54014540e-003 1.74628217e-002
      -1.74946394e-002 9.85975098e-003 5.79010230e-003 -2.21459325e-002
      9.27032344e-003 1.43623771e-002 1.53034154e-004 -3.72776240e-002
      1.44458115e-002 9.52169579e-003 8.20669997e-003 -9.24004987e-002
      1.24110421e-002 8.86350870e-003 2.38534473e-002 -1.83801558e-002
      9.90031185e-005 2.33949851e-002 1.18430536e-002 1.47836329e-002
      1.55399041e-002 1.94394179e-002 0. 1.74542796e-002 6.61346596e-003
      -2.84546521e-002 -2.11027339e-002 1.32919778e-003 1.71169557e-003
      -1.51467491e-002 8.05037934e-003 6.81167794e-003 6.13168487e-003
      1.58742834e-002 -6.93248492e-003 1.26141636e-002 -6.14535296e-003
      -2.44103856e-002 -2.17270255e-002 7.27034081e-003 3.11473273e-002
      -3.09148263e-002 -2.23476370e-003 -2.81646866e-002
      -1.79071538e-002 -5.97820571e-003 1.01596741e-002 -1.43958544e-002
      8.38495605e-003 -2.80933385e-003 3.92887788e-003 2.07423810e-002
      -1.52439147e-003 -3.07737570e-003 3.35475313e-003 1.30262598e-002
      5.44875860e-003 1.16601400e-002 2.84863357e-002 -1.66196544e-002
      -8.56430677e-004 1.35207456e-002 1.18718762e-003 2.77398853e-003
      1.32219279e-002 -2.30094977e-003 9.79965553e-003 8.16907175e-003
      -2.71120220e-002 1.53151220e-002 2.03174371e-002 -7.96053335e-002
      2.81408895e-003 1.39982179e-002 -3.82631388e-003 6.93038153e-003
      1.73592083e-002 1.45885115e-002 2.07828376e-002 3.20590771e-004
      1.59089454e-002 1.21735297e-002 -6.38737669e-003 -3.32121341e-003
      -8.94716661e-003 1.34831795e-003 -1.56833139e-005 4.55789175e-003
      2.00840714e-003 4.76522092e-003 4.47629439e-003 -3.14581022e-002
      -2.47650072e-002 -3.84791642e-002 -9.49511211e-003
      -4.21294989e-003 -6.33790493e-002 9.65287181e-005 1.09171020e-002
      -1.13447033e-001 -9.61616356e-003 6.30541006e-003 2.27280566e-003
      1.64202414e-002 -1.94153422e-003 -1.04480293e-002 5.07106259e-003
      1.20387496e-002 1.13893794e-002 -9.82191227e-003 1.40975481e-002
      -2.14557182e-002 3.85044864e-003 -1.27439536e-002 6.48034795e-004
      6.41910313e-003 4.11639892e-004 3.02251074e-002 -1.85061824e-002
      4.64976486e-003 -1.75951933e-003 5.42432396e-003 1.42477350e-002
      4.73853759e-003 -2.37727333e-002 2.87265591e-002 7.65257096e-003
      -2.44406308e-003 1.89109724e-002 4.19561891e-003 6.31384505e-003
      5.79418335e-003 -4.15244959e-002 1.64389238e-002 1.51408259e-002
      5.51100075e-003 3.84171843e-003 8.04704335e-003 -3.56643200e-002
      -2.83327568e-002 -5.05761616e-003 -2.03773659e-002 1.64292064e-002
      -1.47211617e-002 -4.08752300e-002 -1.62215009e-002 4.46713809e-003
      4.52630222e-003 -4.03454639e-002 -1.62294842e-002 6.92825625e-003
      1.08378483e-002 1.42565765e-003 -3.62728126e-002 3.30838514e-003
      2.07082666e-002 1.46786692e-002 -2.07159650e-002 3.86279402e-003
      -1.14777428e-003 -1.96440681e-003 -2.68454961e-002 1.34833362e-002
      5.74552454e-003 1.32020824e-002 1.60648506e-002 -1.52780267e-004
      9.16230585e-003 -2.49820575e-003 3.10791526e-002 -1.48035446e-003
      3.11044836e-003 -2.79231783e-004 1.33538758e-002 1.80070996e-002
      1.72501877e-002 2.51807296e-003 3.56702856e-003 -1.20899931e-003
      1.19242165e-002 1.73921287e-002 7.28955120e-003 -5.34047894e-002
      3.58770490e-002 -1.20181739e-002 1.30500030e-002 -4.55488041e-002
      -3.84574709e-003 -9.27879885e-002 -3.25872866e-003 2.26937560e-003
      5.74550033e-003 1.24605559e-002 -4.76470515e-002 1.37805082e-002
      1.60612836e-002 2.24045943e-002 1.01206983e-002 -1.75030087e-003
      1.82641223e-002 -7.21273059e-003 2.39847712e-002 -1.82300899e-003
      1.46194054e-002 -6.57483586e-004 -3.41886990e-002 5.43981278e-003
      -2.71684732e-002 4.96932399e-003 2.97652949e-002 1.88062433e-002
      1.30238272e-002 7.62795703e-003 4.06207703e-003 -9.50208213e-003
      3.51272300e-002 2.43076850e-002 2.09939480e-002 2.46081525e-003
      -1.20637501e-002 1.66635048e-002 -2.34098569e-003 -3.56747881e-002
      -7.23873172e-003 -4.13082959e-003 2.98462808e-003 1.84642710e-002
      -3.72662470e-002 2.13407315e-002 -3.04287911e-004 -6.60466552e-002
      -3.06800865e-002 1.70930959e-002 1.24254087e-002 -3.44464704e-002
      1.32818641e-002 -1.17129618e-002 1.69156529e-002 1.06940763e-002
      3.17267352e-003 -1.68385562e-002 7.49621773e-003 3.07994504e-002
      8.80170893e-003 1.48969563e-002 -6.51437463e-003 4.16665617e-003
      1.67624392e-002 8.30660481e-003 2.07223818e-002 8.80545191e-003
      2.26881076e-002 2.38116905e-002 1.11309427e-003 1.89333428e-002
      -3.19447033e-002 2.00897735e-002 3.26036708e-003 1.80986803e-002
      1.29775824e-002 4.01136058e-004 2.34024599e-004 -2.46502198e-002
      1.95330754e-002 -1.66887287e-002 9.85320751e-003 0.
      8.36011302e-003 2.06737667e-002 9.45157022e-004 1.72018800e-002
      1.33219035e-002 -3.13850841e-003 -3.03012095e-002 8.41355242e-004
      1.81023870e-002 4.82652988e-003 2.12638658e-002 -1.64090656e-003
      1.43038072e-002 -4.74112295e-003 -9.63359082e-004 2.43356023e-002
      -6.10016845e-002 2.23528780e-002 5.20598330e-003 1.33548239e-002
      8.36890843e-003 1.04013784e-002 9.62345582e-003 3.25820432e-003
      5.58656268e-003 5.40786795e-003 1.65692158e-002 5.64985909e-003
      -1.08069628e-002 -2.44124867e-002 0. 2.70216949e-002
      2.13753246e-002 4.56187408e-003 1.55609865e-002 -3.59078646e-002
      2.35430133e-002 3.92065383e-003 1.83836613e-002 1.34561798e-002
      1.07123442e-002 2.04698090e-002 1.84016693e-002 2.94666458e-002
      5.70659153e-003 3.30524798e-003 1.33485394e-002 -6.39649555e-002
      3.67901754e-003 1.43498890e-002 -1.45821581e-002 7.56219029e-003
      2.20139157e-002 -4.27536014e-003 1.75266322e-002 6.24446152e-003
      -1.32463843e-001 2.21781619e-002 4.29934682e-003 -2.18716934e-002
      1.57258306e-002 1.19605903e-002 -1.78450383e-002 -3.89833599e-002
      2.56597567e-002 8.18478467e-004 -1.00173950e-002 6.88504835e-004
      -1.77400298e-002 -3.61193232e-002 -4.58741300e-002
      -4.15994646e-003 1.86659675e-002 2.44143344e-002 2.75264829e-002
      1.46762701e-002 -1.66041497e-003 -5.78851998e-003 2.77187303e-002
      2.30634175e-002 2.61536799e-002 -2.26434390e-003 -3.59797478e-003
      -1.20994607e-002 -4.44753021e-002 -1.86634716e-002 2.75872201e-002
      9.25313774e-003 -4.47570123e-002 -3.49461474e-002 3.79795674e-003
      2.26205983e-003 1.68270096e-002 8.54219310e-003 -2.42307107e-003
      3.36250261e-004 -6.97390316e-003 -5.25370380e-003 8.29618331e-003
      1.28866620e-002 -7.04320206e-004 1.65944081e-003 -1.24041149e-002
      2.12375224e-002 -1.95985418e-002</_></support_vectors>
  <decision_functions>
    <_>
      <sv_count>1</sv_count>
      <rho>-9.9770363654568195e-001</rho>
      <alpha>
        1.</alpha>
      <index>
        0</index></_></decision_functions></my_svm>
</opencv_storage>
