<?xml version="1.0"?>
<opencv_storage>
<my_svm type_id="opencv-ml-svm">
  <svm_type>C_SVC</svm_type>
  <kernel><type>LINEAR</type></kernel>
  <C>1.</C>
  <term_criteria><epsilon>2.2204460492503131e-016</epsilon>
    <iterations>1000</iterations></term_criteria>
  <var_all>1000</var_all>
  <var_count>1000</var_count>
  <class_count>2</class_count>
  <class_labels type_id="opencv-matrix">
    <rows>1</rows>
    <cols>2</cols>
    <dt>i</dt>
    <data>
      -1 1</data></class_labels>
  <sv_total>1</sv_total>
  <support_vectors>
    <_>
      6.54106401e-003 -2.42749043e-002 6.24362659e-003 -2.67708767e-002
      -1.34535448e-003 -1.54532045e-002 -1.23972923e-003
      -1.23298019e-002 5.75333741e-003 9.17690247e-003 -2.43477300e-002
      -1.49794212e-002 -1.41767589e-002 3.91430315e-003 -4.34794091e-002
      1.42848101e-002 2.40584183e-002 2.25887857e-002 1.11891860e-002
      6.40484830e-003 -2.34835519e-004 -1.28313610e-002 -1.04739545e-002
      1.67542193e-002 -4.25779121e-003 3.78970616e-003 -1.87544082e-003
      3.37978601e-002 6.57671411e-003 1.86510477e-002 1.57031268e-002
      -2.49110833e-002 1.10985273e-002 8.00002087e-003 -3.24094482e-002
      -9.83684510e-003 -1.86433760e-003 1.16387857e-002 1.47323478e-002
      -1.56304371e-002 -1.97113864e-002 6.44537620e-003 1.76268648e-002
      -1.09264590e-002 9.64305457e-003 6.47495640e-003 1.92134492e-002
      -1.24038914e-002 1.20571228e-002 -2.09965408e-002 -1.38394041e-002
      2.97718309e-003 -2.62448378e-002 7.86059070e-003 -1.81472616e-003
      1.72698088e-002 -6.81743249e-002 4.62669693e-003 -1.44200191e-001
      2.33613607e-002 1.44812148e-002 2.18325183e-002 1.47548108e-003
      2.04519443e-002 5.69996983e-003 9.82695259e-003 4.60289000e-003
      1.31384712e-002 -6.26283735e-002 -1.24102142e-002 2.19666841e-003
      6.85280142e-003 -8.85771122e-003 1.32858651e-002 1.92483105e-002
      1.74325947e-002 -2.38757432e-002 1.95502080e-002 -1.58030016e-003
      7.94071145e-003 1.76816757e-004 8.21802591e-004 -1.34867504e-002
      -3.59976129e-003 -1.47438282e-003 -1.57722645e-002 1.37800556e-002
      9.41416062e-003 -8.18042550e-004 -3.47791016e-002 -4.77773808e-002
      2.28203591e-002 -1.30682774e-002 -9.38190147e-003 -1.72867533e-002
      8.94202385e-003 2.52314154e-002 1.60223749e-002 -3.42255086e-003
      -4.22484055e-002 3.13971122e-003 2.22072564e-002 8.68757814e-003
      1.05990767e-002 1.62279655e-004 6.85711624e-003 1.34174889e-002
      2.36357599e-002 1.43657019e-002 -1.96201866e-003 -1.31860571e-002
      5.93789946e-003 -3.71918567e-002 -9.45514534e-003 1.32410740e-002
      -2.08894070e-003 6.17362559e-003 -3.86863598e-003 4.27075988e-003
      1.77784823e-002 8.25386867e-003 -2.64325971e-003 -5.36826483e-005
      -2.33734422e-003 1.05795395e-002 -1.52290072e-002 1.22039383e-002
      1.70747358e-002 6.58923620e-003 1.16544096e-002 1.76446547e-003
      1.43534960e-002 -4.00088867e-003 1.16630411e-002 -2.16992535e-002
      -2.25739386e-002 6.05349941e-003 -2.42528948e-003 2.06091683e-002
      1.89996809e-002 -4.48922074e-004 -3.50964479e-002 -1.21999970e-002
      2.33597457e-002 -5.77108301e-002 -1.70840491e-002 -9.92992334e-003
      7.64804799e-003 3.09807155e-002 1.27115967e-002 2.53624585e-003
      6.72317576e-003 -3.92929614e-002 -1.34491669e-002 5.62432501e-003
      1.82352308e-002 2.26808935e-002 8.88067298e-003 2.42526364e-002
      1.22956801e-002 -2.49479618e-002 1.04386108e-002 5.00224810e-003
      -6.83805021e-003 6.72811083e-003 7.72565464e-003 8.29275697e-003
      7.17071525e-004 4.06827666e-002 -2.89220014e-003 -9.14589874e-003
      1.05879977e-002 1.36823105e-002 1.41194742e-002 1.92558765e-003
      2.86970250e-002 -9.62898042e-003 -2.72135064e-002 9.11391992e-003
      -4.53715846e-002 -1.02333887e-003 3.94958025e-003 5.26463147e-003
      2.87389401e-002 1.11880647e-004 1.52286515e-002 3.62557382e-003
      3.13676568e-003 -7.48973116e-002 -3.83074977e-004 -2.30322010e-003
      -1.83773693e-003 1.47993490e-002 5.54151833e-003 -3.12687494e-002
      3.74293551e-002 -3.04559804e-003 -1.27114337e-002 9.64247435e-003
      3.26815736e-003 -1.63696669e-002 -9.46113095e-002 6.69531710e-003
      1.19481143e-002 4.19141585e-003 -1.23095224e-002 8.94503482e-003
      4.70419833e-003 5.16712433e-003 -2.66399179e-002 1.22054741e-002
      -3.10800001e-002 -7.83884246e-003 3.70602892e-003 -4.15518368e-003
      -1.15780160e-002 -1.14097362e-002 2.59686145e-003 1.37825366e-002
      -1.22765340e-002 -1.41004011e-001 8.02163221e-003 3.94392274e-002
      -1.89299346e-003 4.89112036e-003 2.14726832e-002 1.20919542e-002
      1.35361415e-003 -8.79727490e-003 -1.81691330e-002 5.91176609e-003
      -2.10366882e-002 5.69319632e-003 -3.61663476e-002 -2.69587780e-003
      -1.93987302e-002 -2.05122996e-002 -1.25201484e-002 3.31228133e-003
      2.15247385e-002 3.06911930e-003 3.49631603e-003 -5.46351634e-003
      1.58220246e-005 -1.89621374e-003 1.01666455e-003 9.76817962e-003
      1.11316741e-002 -1.02956127e-003 1.78661104e-002 9.34615731e-003
      1.18091842e-002 -5.61703369e-002 -6.82505444e-002 1.53304813e-002
      -4.18696366e-003 -7.21388636e-003 5.12201758e-003 7.64849316e-003
      -1.34375959e-003 7.97343091e-004 1.13049941e-002 -4.74386476e-002
      5.50481770e-003 -3.01520666e-003 2.08556857e-002 1.45316897e-002
      -2.66607734e-003 5.81740960e-003 1.17532378e-002 9.87680443e-003
      2.72429478e-003 1.33004338e-002 1.06234169e-002 1.86139569e-002
      1.19120404e-002 -2.21238751e-002 7.34080607e-003 1.32287983e-002
      4.81881713e-003 -2.90286466e-002 -1.50172673e-002 -1.61587168e-002
      2.70410534e-003 -5.48923062e-003 2.27793423e-003 1.42022455e-002
      9.32874251e-003 -2.44308617e-002 1.50477868e-002 5.74176549e-004
      -8.39676112e-002 1.31706987e-002 2.99001448e-002 -4.71296236e-002
      1.41183063e-002 5.33609279e-003 -2.45430339e-002 6.26946380e-003
      -7.25645665e-003 3.42492852e-003 1.16157653e-002 -2.58121337e-003
      -3.39108496e-003 1.82506558e-003 -1.28920586e-003 -5.60849253e-003
      1.11842034e-002 -3.41392495e-002 1.58174485e-002 6.86291046e-003
      -1.51653599e-003 1.45853432e-002 -4.21838369e-004 9.98329278e-003
      -1.62683427e-002 6.27748342e-003 -1.31117161e-002 1.25073167e-002
      1.76127702e-002 3.20049189e-002 -4.75695264e-003 -3.80672631e-004
      -2.10445262e-002 1.44768518e-003 1.66718084e-002 -8.66864226e-004
      -2.26656422e-002 -2.53953300e-002 5.02599170e-003 -2.40388140e-002
      1.82301030e-002 -9.35892016e-003 1.67303737e-002 1.65886953e-002
      -5.16554434e-003 -1.08355815e-002 -8.27534497e-003 1.90501120e-002
      1.70155875e-002 -2.97246911e-002 2.04819031e-002 -2.47745086e-002
      2.91068666e-002 7.01151788e-003 6.05093734e-003 1.86500922e-002
      7.30784051e-003 -3.34700495e-002 4.47182357e-003 -4.02145181e-003
      2.24593915e-002 -4.96342359e-003 1.60235364e-003 1.95503812e-002
      -1.86088530e-003 -1.38659067e-002 -2.04068460e-002
      -3.44043598e-003 1.05783156e-005 2.00367905e-002 2.88470252e-003
      -3.15594277e-003 -1.26625262e-002 8.32685269e-003 3.52164311e-003
      -1.11704355e-003 1.43961832e-002 -2.76110098e-002 1.44998068e-002
      -6.01210743e-002 -3.44301504e-003 1.00360168e-002 4.50523244e-003
      6.50422182e-003 3.82498205e-002 1.95198320e-002 -2.40172949e-002
      -3.11056580e-002 -5.16956225e-002 2.29979880e-004 -1.64807886e-002
      7.56110391e-003 7.40119349e-003 2.86547113e-002 2.19017752e-002
      1.47999655e-002 5.97783551e-003 7.36432150e-003 -1.45937093e-002
      1.08776931e-002 1.34639647e-002 2.72212597e-003 1.28868502e-002
      -7.91221578e-003 -8.15925375e-003 6.71072211e-003 -2.23894976e-002
      -7.45177409e-003 9.05167125e-003 1.61811728e-002 -1.44704506e-002
      -2.34195008e-003 1.47630824e-002 -1.24442698e-002 2.61143636e-004
      9.36293323e-003 -3.06801545e-003 -1.29489535e-002 -2.45585162e-002
      7.57801346e-003 4.68042260e-003 2.20645592e-002 9.83039755e-003
      4.15479857e-003 1.60715673e-002 5.15430547e-005 7.73867453e-003
      -4.30221623e-003 1.08548794e-002 1.22180851e-002 -1.16807558e-002
      1.06884018e-002 -2.70122308e-002 3.62217650e-002 -4.31351066e-002
      8.08329042e-003 1.75714158e-002 1.01248845e-002 -2.98416521e-003
      1.14707425e-002 5.76072512e-003 -5.81983768e-004 -5.57068037e-003
      -2.92761121e-002 7.93015677e-003 4.01752591e-002 1.45905151e-003
      1.28557067e-002 5.01882005e-003 1.83549598e-002 -3.55851185e-003
      2.08025016e-002 3.39835737e-004 -1.22949993e-002 2.39800289e-003
      1.43448384e-002 2.18396224e-002 1.95544120e-002 -4.04692692e-004
      5.74236130e-003 6.83787139e-003 1.52615458e-002 3.38207610e-004
      7.55685369e-006 1.26425549e-002 -6.70869695e-003 -8.68784729e-003
      1.41315097e-002 -2.58594267e-002 4.69736801e-003 1.35234399e-002
      1.49329249e-002 1.33072315e-002 -1.36949727e-002 7.34337047e-003
      5.63585991e-003 3.66251287e-003 -1.81157212e-003 -2.21658824e-003
      -3.08590569e-003 2.04779096e-002 1.39876362e-002 -1.09796692e-003
      2.42043287e-002 1.25798648e-002 2.70240922e-002 -3.23912711e-003
      1.91779062e-002 5.54519240e-003 5.88859897e-003 -2.67898459e-002
      1.07722543e-002 5.84957469e-003 5.83400298e-003 -3.45838559e-003
      1.11404704e-002 2.63209119e-002 4.95961495e-003 2.54859198e-002
      1.04089379e-002 -4.78376821e-002 6.97777933e-003 -6.41864445e-003
      1.76437683e-002 -1.79941971e-002 1.45733205e-003 -3.02549591e-003
      -6.53656479e-003 2.93997605e-003 1.72011722e-002 1.42077636e-002
      -1.66319013e-002 3.82285588e-003 2.06754990e-002 -1.97220296e-002
      6.98695797e-003 6.94239512e-003 1.01220505e-002 1.25875631e-002
      3.18193473e-002 -4.71389433e-003 5.39621105e-003 -3.07177380e-002
      8.87473486e-003 -7.16421846e-003 2.99618579e-003 6.72566658e-003
      1.27214729e-003 3.66582582e-003 5.61884418e-003 -2.53183153e-002
      -2.35842783e-002 1.26025472e-002 2.70762425e-002 -1.51083497e-002
      -4.70851324e-002 4.47171647e-003 1.07714804e-002 -8.91899224e-003
      1.63787082e-002 1.92827312e-003 -1.79809388e-002 3.51031404e-003
      -6.33550109e-004 1.44945784e-002 1.08894883e-002 -1.39955478e-002
      9.47025791e-003 2.15368113e-003 1.50944153e-002 -1.35473683e-002
      4.24072379e-003 9.48290993e-003 1.10039925e-002 7.88575504e-003
      1.01206871e-002 3.10236076e-003 7.65133370e-003 6.42838713e-004
      7.84339383e-003 1.88186951e-002 1.02327019e-002 1.41769713e-002
      -6.89585460e-003 -1.38365943e-002 2.78440444e-003 5.28702326e-003
      6.03914261e-003 1.13094123e-002 -2.56925337e-002 5.44670911e-004
      -9.21313884e-004 -7.03130243e-003 7.20297219e-003 -3.72312777e-003
      -2.21267412e-003 -2.09170324e-003 4.05927841e-003 2.22375826e-003
      2.46020705e-002 4.35162522e-003 -8.71274322e-002 1.60765853e-002
      4.31207567e-002 -3.19286343e-003 0. -8.50069150e-003
      2.96800374e-003 1.46354372e-002 1.00324694e-002 8.58525839e-003
      2.20220741e-002 6.41476363e-003 2.64556706e-003 -3.36100496e-002
      -1.29740941e-003 -1.15074189e-002 -6.14426024e-002 2.09435932e-002
      1.33708399e-002 1.18414704e-002 5.16173290e-003 -1.54276919e-002
      -7.98048265e-003 -2.90554995e-003 2.92891427e-003 -1.42164796e-003
      1.31264259e-003 8.52562953e-003 -8.92147794e-003 2.11335183e-003
      7.20632914e-003 -2.99622901e-002 4.15386213e-003 1.19623635e-003
      4.95286286e-003 1.65389255e-002 -6.08502515e-003 -3.42323892e-002
      -1.99486334e-002 -1.87816601e-002 -3.37932594e-002 3.79489316e-003
      2.63690972e-003 1.20904492e-002 4.02918179e-003 3.18886936e-002
      1.54439360e-002 1.42147671e-002 -1.94557291e-002 2.20518489e-003
      -2.41416842e-002 2.81892382e-002 -5.81535175e-002 9.96914413e-003
      -8.66021682e-003 -6.17233012e-003 1.90867446e-002 -1.67701452e-003
      -1.41568026e-002 3.45729338e-003 -1.20949345e-002 2.22253371e-002
      -1.59717277e-002 1.69020314e-002 -4.94755385e-003 3.90959159e-003
      1.16470540e-002 6.46939129e-003 -3.29189422e-003 2.05290550e-003
      4.65425150e-003 1.74142756e-002 1.03221089e-002 2.11824197e-003
      3.76606680e-004 6.92891050e-003 -1.95246655e-002 2.65490147e-003
      1.79975905e-004 2.02604756e-002 -1.99902169e-002 2.39870287e-002
      1.54542513e-002 3.62890540e-004 -3.39666530e-002 1.63758546e-002
      6.45380933e-003 -2.25132774e-003 1.32997120e-002 8.78225919e-003
      -1.41680276e-003 1.60187725e-002 1.31970951e-002 -9.56677366e-003
      -1.79134719e-002 1.41812926e-002 1.55660063e-002 8.27119499e-003
      -1.60263088e-002 1.52598526e-002 -2.55304552e-003 5.01600094e-003
      7.53368903e-003 1.15317972e-002 -5.00291493e-003 3.16006690e-003
      1.11274347e-002 2.61123991e-004 -7.44911237e-003 7.76364887e-003
      9.42451041e-003 -6.90395683e-002 5.74387889e-003 -1.19018191e-002
      1.70795918e-002 4.59020957e-003 8.80755484e-003 -1.83700875e-003
      3.49467024e-002 4.51979507e-003 -1.90276448e-002 -2.00986732e-002
      -7.65940174e-004 3.35370377e-003 8.39788187e-003 2.37003211e-002
      1.87312998e-002 2.07842104e-002 1.27914436e-002 -1.80451646e-002
      2.87043843e-002 -1.23372404e-002 1.34838577e-002 -1.03619555e-002
      1.23237511e-002 -6.20857300e-003 1.21751847e-002 -5.54856053e-003
      1.99066103e-002 5.41008497e-003 -6.90171495e-003 1.57836340e-002
      1.86840969e-003 -5.06445440e-003 6.24560751e-003 4.04609321e-003
      8.90481565e-003 1.14845568e-002 2.65823081e-002 8.58937763e-003
      3.73248793e-002 8.52506515e-003 -1.41426362e-002 5.23761986e-003
      -2.07528770e-002 1.27365049e-002 3.60170798e-003 1.54109250e-004
      -1.95491989e-003 8.64765607e-003 1.56259909e-002 -6.87302137e-003
      -8.94779991e-003 2.97826319e-003 2.07859240e-002 1.07411842e-003
      -6.66930079e-002 -2.70930771e-002 -2.57302169e-002 9.73556377e-003
      -2.35692915e-002 9.07758810e-003 1.87580776e-003 1.56561211e-002
      7.76887545e-003 8.08166806e-003 -1.45347910e-002 4.90370090e-004
      1.11269644e-002 7.40560377e-003 -4.59692813e-002 1.12978527e-002
      -1.24911480e-002 1.11510633e-002 2.20473502e-002 2.09401548e-002
      -2.58786604e-003 1.13454834e-002 5.08511486e-003 -1.57346614e-002
      -5.93303936e-003 -1.04417689e-002 8.86155386e-003 -2.91227400e-002
      -3.89869354e-004 2.61310656e-002 1.52902724e-002 -2.39032637e-002
      -1.08498912e-002 1.37505857e-002 1.39519898e-003 2.34131292e-002
      -1.42270736e-002 -7.96155713e-004 -5.32051995e-002 1.67347938e-002
      7.63824815e-003 -2.01441464e-003 1.15701342e-002 4.06453852e-003
      8.00463604e-004 1.17335608e-003 1.67755561e-003 5.45201590e-003
      -2.34544240e-002 2.06015119e-003 -7.49202212e-003 3.01453285e-003
      -2.75699496e-002 4.97929705e-003 -1.13809872e-002 4.66637174e-003
      -3.54057434e-003 -2.45588440e-002 -2.41981428e-002 6.31359033e-003
      9.80439247e-004 1.88254658e-002 -8.50910600e-003 -1.41143827e-002
      -1.10757761e-002 -1.27334883e-002 7.52676278e-004 1.49009444e-004
      1.57062465e-003 -1.52407717e-002 -2.55546579e-003 -3.72565389e-002
      -1.49944925e-003 -6.49300404e-003 -2.15440872e-003 1.70086365e-004
      1.05524193e-002 -2.32975632e-002 -8.49157386e-003 1.57554820e-002
      -1.68881472e-002 -1.33510986e-002 1.96326673e-002 1.40968361e-003
      -2.33571418e-002 8.25168099e-003 -3.37950699e-002 -2.41282843e-002
      -5.17715188e-003 5.92675013e-003 9.44429263e-003 8.75058584e-003
      3.82685009e-003 1.94407883e-003 -1.09594036e-002 -2.51021739e-002
      8.21640994e-003 -2.97542196e-002 -5.39847591e-004 1.06004700e-002
      -2.24471744e-003 8.54647066e-003 1.23034986e-002 2.27879803e-003
      -2.75520105e-002 -2.51452271e-002 -1.52126607e-002
      -1.39063690e-002 -2.96060592e-002 -1.28740668e-002
      -6.47002012e-002 1.39928178e-003 -2.33453512e-002 1.93876475e-002
      7.19625084e-003 -4.40675579e-003 -5.70232107e-004 -1.40445819e-002
      4.63096937e-003 -1.67999212e-002 2.72341687e-002 1.15236705e-002
      -4.63761985e-002 7.42387353e-003 2.58059166e-002 7.69908167e-003
      1.07075805e-002 -1.71236193e-003 -2.50744284e-003 7.15744775e-003
      1.24490820e-002 -4.44715982e-003 1.15884002e-002 -1.87550951e-002
      1.02530967e-003 3.19850491e-003 7.72656733e-003 5.89687424e-003
      1.92287993e-002 4.90292953e-003 -7.95558188e-003 1.37272393e-002
      2.69396286e-002 1.13722763e-003 -1.08428672e-003 4.46738629e-003
      1.64153744e-002 6.52398122e-003 1.70991961e-002 9.12272721e-004
      -4.40301048e-003 -6.36821205e-004 2.12063380e-002 7.42034568e-003
      1.24722719e-002 -2.21185852e-002 0. 1.12579959e-002
      1.74579918e-002 -2.10909825e-002 9.55254305e-003 -7.27393804e-003
      1.10161845e-002 1.46495290e-002 8.17182381e-003 1.09950481e-002
      3.06433253e-003 -7.91183189e-002 1.80862080e-002 -1.26307579e-002
      -5.67410188e-003 -2.27301288e-003 2.82055256e-003 -1.49444276e-002
      1.02659045e-002 -3.13074491e-003 6.62962487e-003 3.17279410e-005
      -3.14516202e-003 1.02048200e-002 6.65287580e-003 2.91601829e-002
      3.01882671e-003 9.61216912e-003 -2.92187906e-003 -1.53216673e-002
      -2.08474547e-002 1.03054743e-003 -1.09486263e-002 1.23560270e-002
      7.24209519e-003 2.18861401e-002 9.15188622e-003 -1.80945061e-002
      -1.40876397e-002 -2.80170992e-004 -3.57500836e-002 1.47557650e-002
      9.02992208e-003 -1.46215633e-002 1.02150962e-002 -1.36693520e-002
      1.36817349e-002 -5.13411909e-002 1.49220396e-002 -1.62196998e-002
      -9.40122548e-003 -2.03126553e-003 4.68078069e-003 -2.68843435e-002
      3.94010125e-003 -3.74867916e-002 -6.88771112e-003 3.66273941e-003
      2.00713500e-002 -1.06751397e-002 4.63222899e-003 9.87998117e-003
      9.36576258e-003 4.02232073e-003 1.27567006e-002 -1.34754535e-002
      1.99465104e-003 7.47081451e-003 6.33305404e-003 2.58620568e-002
      -6.05570292e-003 2.53995471e-002 8.67205847e-004 1.07145803e-002
      4.21414617e-003 -5.70674520e-003 -7.50868069e-003 1.92037076e-002
      8.00654385e-003 -2.89475825e-002 -1.31949140e-002 1.38633773e-002
      1.38026746e-002 -2.55850656e-003 -3.63612473e-002 1.84097216e-002
      -9.64092556e-003 2.28039697e-002 -1.51309473e-002 1.41824083e-002
      8.67322087e-003 1.12879174e-002 2.87584169e-003 -1.79036986e-002
      1.44657930e-002 1.34678595e-002 5.80767542e-002 -8.73297174e-003
      1.13133527e-002 -8.70041549e-003 -2.11581923e-002 1.01448111e-002
      -8.30990635e-003 1.36598817e-003 5.61794918e-003 3.91719304e-002</_></support_vectors>
  <decision_functions>
    <_>
      <sv_count>1</sv_count>
      <rho>-9.9865095995603637e-001</rho>
      <alpha>
        1.</alpha>
      <index>
        0</index></_></decision_functions></my_svm>
</opencv_storage>
