<?xml version="1.0"?>
<opencv_storage>
<my_svm type_id="opencv-ml-svm">
  <svm_type>C_SVC</svm_type>
  <kernel><type>LINEAR</type></kernel>
  <C>1.</C>
  <term_criteria><epsilon>2.2204460492503131e-016</epsilon>
    <iterations>1000</iterations></term_criteria>
  <var_all>1000</var_all>
  <var_count>1000</var_count>
  <class_count>2</class_count>
  <class_labels type_id="opencv-matrix">
    <rows>1</rows>
    <cols>2</cols>
    <dt>i</dt>
    <data>
      -1 1</data></class_labels>
  <sv_total>1</sv_total>
  <support_vectors>
    <_>
      -1.12787774e-002 1.71460286e-002 2.88049527e-003 6.09372929e-003
      3.04353680e-003 -3.01358220e-003 1.20254466e-002 -3.15986318e-003
      -3.31074633e-002 2.30219942e-002 6.92277681e-003 1.31370537e-002
      1.11589476e-003 7.16934819e-003 -8.99664313e-003 -2.87212171e-002
      -1.52412551e-002 7.54876455e-005 5.90364821e-003 -8.17035418e-003
      1.17917852e-002 2.02537840e-003 -2.69763749e-002 -1.67662129e-002
      6.14888361e-003 5.75755863e-003 1.31352022e-002 -3.63315716e-002
      6.01464976e-003 1.04119172e-002 -6.76747551e-003 1.47354044e-002
      -2.41430718e-002 -6.27462799e-003 -1.05949538e-002 1.06793698e-002
      3.93772079e-003 -1.50645580e-002 -2.00459715e-002 7.52275228e-004
      6.68450771e-003 1.21303555e-002 2.09973048e-004 -2.42799651e-004
      -1.17070237e-002 -6.44617062e-003 -3.72802396e-003 5.61441528e-003
      -1.29855294e-002 1.17227966e-002 3.12543809e-002 1.11486642e-002
      1.08730337e-002 -1.43908774e-002 2.80239992e-003 1.79430265e-002
      8.03855900e-003 1.40466681e-002 6.67838454e-002 -2.50901934e-002
      -2.02108603e-002 2.60359468e-003 6.16589314e-005 3.87916644e-003
      6.48224493e-003 -9.92722460e-004 2.66003050e-003 1.77411584e-003
      3.05978917e-002 -1.66375544e-002 8.45053140e-003 -1.28226439e-002
      5.04148705e-003 -3.89297195e-002 4.78101010e-003 8.90288223e-003
      1.60367936e-002 -1.78331006e-002 2.08257921e-002 -3.98878567e-003
      -2.55080741e-002 -9.43767279e-003 -9.67288762e-003 1.38043379e-002
      2.32884493e-002 1.93249770e-002 6.91766990e-003 -3.31250625e-003
      1.58810373e-002 -5.40922582e-003 2.54314113e-002 2.92730867e-003
      2.83535384e-003 8.18717200e-003 4.25503496e-003 -1.08390925e-002
      -2.53998842e-002 -4.49158577e-003 -1.09855289e-004
      -1.42675955e-002 1.14508308e-002 -1.72811285e-001 7.74686399e-004
      9.74773336e-003 3.37150209e-002 5.12861274e-003 -1.45383906e-002
      -2.08275672e-002 -2.23810552e-003 -3.53968376e-003
      -9.43864789e-003 1.43309962e-002 -1.39000663e-003 -8.93024087e-004
      2.08766898e-003 -9.57074761e-003 8.90857633e-003 2.06171572e-002
      -7.16017699e-003 7.74575323e-002 -1.20085059e-002 -8.05118866e-003
      7.23664183e-003 4.83171083e-003 -2.12490512e-003 2.43838504e-002
      5.27242664e-003 1.65379830e-002 -4.27949689e-002 -4.75884788e-003
      -2.00280901e-002 -2.42732815e-003 6.96171075e-003 -1.77927632e-002
      4.21683723e-003 -4.00586333e-003 2.90970993e-003 2.31889151e-002
      -3.77296396e-002 -1.14968810e-002 1.85952447e-002 5.44217927e-003
      -5.40508656e-003 -1.30000827e-003 1.26227541e-002 4.21653967e-003
      9.63734929e-003 -5.31511661e-003 -2.52057053e-002 7.33865018e-005
      6.14321139e-003 2.38308422e-002 1.72509775e-002 1.38325132e-002
      -6.23253407e-003 -1.02609172e-002 1.40796546e-002 6.19344786e-003
      -1.60839129e-002 -1.82979775e-003 -1.07509233e-002 1.00065228e-002
      -1.90207846e-002 -1.10870891e-003 -5.54702524e-003 6.74752844e-003
      -1.20043689e-002 -2.47245934e-003 -1.97541490e-002 4.48786467e-003
      8.53015296e-003 1.04068611e-002 -9.21528600e-003 -6.94293645e-004
      1.05922818e-002 -3.10914814e-002 -1.18079539e-002 7.56465225e-003
      1.56304631e-002 3.64867747e-002 1.65312439e-002 1.09064067e-003
      -1.41709263e-003 -6.26994520e-002 -9.11263842e-003 2.73982738e-003
      4.79940139e-003 -1.28413346e-002 5.68325073e-003 1.29431086e-002
      6.97360234e-003 -5.35399327e-003 -9.69469640e-003 2.58070271e-004
      9.06903204e-003 -2.25219522e-002 -2.65260711e-002 2.08028220e-003
      5.11749974e-003 -2.20314530e-003 1.17412377e-002 4.36895303e-002
      -1.45657137e-002 7.05795316e-003 1.14179123e-002 1.30686471e-002
      3.50654568e-003 2.85474188e-003 6.58556353e-003 -1.37738022e-003
      1.64463390e-002 1.20243682e-002 1.74476039e-002 8.09353311e-003
      1.03274286e-002 9.57853533e-003 9.45815700e-004 -1.31746347e-003
      8.31963215e-003 1.35918530e-002 3.54544749e-003 -8.39720946e-003
      -1.04000764e-002 -2.13295575e-002 4.34167031e-003 1.07526341e-002
      6.39470154e-003 1.50777875e-002 1.60332806e-002 5.91939269e-003
      -4.65500663e-004 1.14767198e-002 -3.40148546e-002 9.33725759e-003
      7.10188830e-003 6.03376841e-003 8.70121736e-003 -1.87294930e-002
      -2.15393398e-003 -8.82514752e-003 -2.94241104e-002 1.20406887e-002
      1.90971643e-002 7.47513864e-003 -4.14965488e-003 1.86664239e-003
      -5.93115157e-003 -1.23966597e-002 -4.42759308e-004 1.91380084e-002
      3.19466949e-003 -9.14045889e-003 5.38980849e-002 3.62753607e-002
      -1.80201251e-002 -1.86379836e-003 1.17917536e-002 1.45116802e-002
      -1.05089890e-002 -4.32181219e-003 -1.04913022e-004 7.63726141e-003
      1.08953975e-002 1.14585143e-002 -2.30669100e-002 -2.21711360e-002
      -1.74348541e-002 7.46205682e-003 -2.89510582e-002 -1.35791199e-002
      7.08678199e-005 2.09128279e-002 -7.24264048e-003 -1.50449993e-003
      -8.04743469e-002 -1.43702870e-004 7.98129849e-003 -2.15097666e-002
      7.02866074e-003 8.64636526e-003 -2.70378534e-002 -1.30307972e-002
      -6.54001534e-003 1.71327649e-003 7.33060995e-003 1.90100295e-003
      -1.59648946e-003 -1.10633606e-002 -1.24633759e-002 6.10909192e-003
      3.14045325e-003 2.35238895e-002 1.24272010e-005 3.31750768e-003
      1.99071337e-002 2.85314186e-003 -7.64235575e-003 1.98472943e-002
      -3.23793180e-002 -1.30848326e-002 -4.45581647e-003 6.20332407e-003
      1.33880563e-002 2.45812861e-003 5.79417078e-003 1.73267834e-002
      6.29181182e-003 3.39452410e-004 1.47370771e-002 6.13193261e-003
      -2.12891493e-003 -1.16723599e-002 4.05238103e-003 5.90669177e-003
      1.91951022e-002 1.82330161e-002 -1.20069203e-003 5.27561316e-003
      -3.56695638e-003 3.39184422e-004 3.12765129e-002 -5.00152912e-003
      7.73944939e-003 3.14867981e-002 -2.28678854e-003 -3.02647240e-003
      2.16316944e-003 -2.31287424e-002 1.14306910e-002 -6.86028693e-003
      1.41852368e-002 -2.40240619e-002 1.75199080e-002 3.30218906e-003
      -1.25815608e-002 -5.92200411e-003 1.68808829e-002 1.02551943e-002
      -2.28828490e-002 7.42117083e-003 2.29621772e-002 -3.26088145e-002
      7.41596846e-003 -7.07022846e-002 1.48621611e-002 -3.38188861e-003
      2.39054766e-003 -2.09196433e-002 -8.70110933e-003 4.49222000e-003
      9.28355556e-004 2.04644538e-003 9.91965272e-003 1.16070602e-002
      -8.23337771e-003 7.78041082e-003 -2.67646101e-004 1.26655577e-002
      6.91922987e-003 1.07850600e-003 -4.87207109e-003 -1.17212895e-003
      9.27603524e-003 4.86924313e-003 1.83058195e-002 -1.62569173e-002
      1.17409532e-003 4.82663885e-003 1.78471636e-002 1.21065620e-002
      3.23488601e-002 -2.15265667e-003 9.01023112e-003 1.47852218e-002
      -1.02738841e-002 -4.05639447e-002 -2.28463262e-002 9.08384565e-003
      1.76432114e-002 1.77029409e-002 6.08589826e-003 1.49848638e-002
      -2.90519069e-003 3.51805007e-003 1.04292808e-002 1.27347512e-002
      -1.78187080e-002 -5.33934124e-003 -1.17663601e-002 1.76633522e-002
      4.85465815e-003 -1.49445946e-003 1.89124176e-003 2.14034063e-003
      5.55697735e-003 1.50219677e-002 -4.90036700e-003 1.86637305e-002
      -1.94743816e-002 2.85213208e-003 1.81947835e-002 1.26335211e-002
      -6.95751794e-003 -1.90127753e-002 -2.02437788e-002 8.77061626e-004
      1.47593031e-002 1.22861983e-002 1.28911240e-002 8.33978131e-003
      3.01888329e-003 6.22462481e-003 -8.50872323e-003 -6.59536384e-003
      2.33719358e-003 -2.58651897e-002 3.13292467e-003 2.18170765e-003
      -2.15381812e-002 -4.15961491e-003 -1.18869459e-002 6.44272240e-003
      -3.07133310e-002 9.64624807e-003 -3.95098366e-002 6.16633985e-003
      -5.32335322e-003 8.54400545e-003 1.45035060e-002 4.59813466e-003
      1.99400494e-003 -5.41162863e-003 3.53425997e-003 -1.70168979e-003
      1.66302752e-002 -1.75857581e-002 -4.27108898e-004 2.23924704e-002
      2.44452921e-003 1.80060021e-003 7.28862942e-004 3.09366803e-003
      2.08837050e-003 2.74115428e-003 1.95400156e-002 5.68009121e-003
      -9.34962276e-003 -2.05147360e-002 9.95776989e-003 5.07505657e-003
      1.94207509e-003 -2.20570294e-003 -8.54322035e-003 -1.08542144e-002
      1.79000348e-002 -5.47075924e-003 1.06508750e-003 6.57194853e-003
      -1.46195907e-002 2.88608694e-003 -1.25542637e-002 8.16653483e-003
      -9.44779254e-003 6.37019053e-004 5.41828945e-002 7.62532698e-003
      -2.40008924e-002 1.63806626e-003 1.15382541e-002 9.93107725e-003
      -1.07929972e-003 -1.00631006e-002 -4.75084363e-003
      -3.44867148e-002 -1.67135999e-003 -1.16029633e-002
      -1.61962248e-002 -1.31480498e-002 5.68196131e-003 5.44739375e-003
      1.36916777e-002 -5.63370110e-003 -8.59603379e-003 -3.08418716e-003
      8.26790370e-003 9.39380284e-003 5.70826093e-003 -4.02767165e-003
      3.12595046e-003 -3.50798368e-002 -1.66583732e-002 1.25911776e-002
      -1.08745629e-002 8.51863343e-003 -4.61305026e-003 8.65582377e-003
      -3.67184076e-003 7.63487210e-003 1.30243124e-002 -2.24818964e-003
      -3.02010868e-002 -1.31594092e-002 4.51445673e-003 -2.84659164e-003
      -1.65174026e-002 -7.21601024e-003 2.47293692e-002 8.59851425e-005
      -7.38138380e-003 -7.72327697e-003 -4.64499332e-002 6.40954543e-003
      1.93943884e-002 7.74114486e-003 1.30536070e-003 2.23669168e-002
      -7.14341039e-003 1.70086101e-002 1.08854100e-002 1.68494100e-003
      5.54415770e-003 1.75028425e-002 2.36308817e-002 8.47799890e-003
      -3.88567112e-002 -6.82036579e-003 2.06325650e-002 7.01890048e-003
      6.87320996e-003 1.16383778e-002 3.50296171e-003 1.16594052e-002
      1.39495023e-002 1.67767925e-003 -1.15170777e-002 2.01058853e-002
      -9.16354079e-003 5.39707113e-003 -4.80487756e-002 -9.83817875e-003
      -1.02593063e-003 7.42153870e-003 -3.91719909e-003 1.37274503e-003
      -3.11546377e-003 -1.06148813e-002 7.63383461e-003 -9.02932510e-003
      2.34693522e-003 1.13860862e-002 -4.74375524e-002 2.17950698e-002
      8.42251349e-003 -1.93303637e-002 -1.59228183e-002 -1.17663648e-002
      -9.73625015e-003 4.56012785e-003 8.45216680e-003 1.18098818e-002
      1.02610188e-002 7.80501962e-003 -2.72168266e-003 1.57593738e-003
      -6.81160670e-003 1.43176494e-002 5.06222574e-003 5.71516063e-003
      -3.00358795e-002 -1.03920652e-003 -2.41160896e-002
      -1.55570672e-003 2.32610889e-002 6.36023795e-003 -3.31634432e-002
      -1.99240372e-002 0. -2.87402188e-003 3.02226003e-003
      -9.10716876e-003 1.51425382e-004 3.86732304e-003 -1.36844506e-002
      1.93557795e-002 4.49676765e-003 -1.25333678e-003 5.69897285e-003
      1.18499296e-002 2.03793421e-002 -6.62754523e-003 -4.37217811e-003
      -1.60796884e-002 1.09444477e-003 1.94135052e-003 4.07310389e-003
      2.65621999e-003 7.00101210e-003 2.63927318e-003 4.68584569e-003
      -3.21705267e-003 -1.03739360e-002 -8.09399295e-004
      -1.36783095e-002 1.17622118e-003 1.78713873e-002 -3.41746979e-003
      1.70595176e-003 -2.65394412e-002 3.98541382e-003 -4.71071992e-003
      2.03371719e-002 3.38533036e-002 2.32449593e-003 -3.91301513e-003
      -4.34180256e-003 9.17893369e-003 -4.72983904e-002 -1.69711616e-002
      -5.30011673e-003 -2.61775758e-002 9.70538147e-003 -3.83120170e-003
      1.05974805e-002 -3.63399051e-002 1.53930411e-002 3.43275885e-003
      2.47968151e-003 1.25534795e-002 -4.12207376e-003 -4.71944659e-004
      -5.39855985e-003 -6.17097737e-003 6.26914017e-003 -2.69292966e-002
      6.23597438e-003 3.11450218e-003 1.30571183e-002 1.47350049e-002
      3.48404469e-003 1.92646086e-002 -5.96956117e-003 -5.89056872e-003
      -1.04432823e-002 8.34130496e-003 -4.93919896e-003 1.03255482e-002
      -3.24855559e-004 7.00157229e-003 1.42268166e-002 1.58033576e-002
      0. -7.59449089e-003 1.14883948e-002 -3.40829715e-002
      8.79520085e-003 8.38548318e-003 2.06177644e-002 -9.99763142e-003
      -2.42126789e-002 3.19290184e-003 -8.08939245e-003 -1.24695459e-002
      6.36629434e-003 -2.09973287e-002 4.07932652e-003 -3.60204373e-004
      8.43204558e-003 1.10380808e-002 -7.57535221e-003 1.65142992e-003
      1.39454380e-002 -1.16523709e-002 -1.72256574e-003 6.95218565e-004
      -9.34336148e-003 4.84640757e-003 4.54904744e-003 5.81927551e-003
      2.93132919e-003 7.82630499e-003 7.16312230e-003 9.34663508e-003
      1.51949003e-002 1.41658736e-002 -2.18562572e-003 1.52309546e-002
      2.21754820e-003 -1.29288761e-002 -3.88575941e-002 -8.28749128e-003
      -1.86623284e-003 2.40413449e-003 9.80180502e-003 1.05564222e-002
      -2.41144226e-004 5.01716277e-003 9.60441958e-003 -2.55896579e-002
      -1.95127688e-002 9.65827238e-003 -3.30064795e-003 3.10037788e-002
      -1.88981108e-002 1.04632899e-002 -1.19802821e-002 -2.23774952e-003
      -1.79017410e-002 4.83399397e-003 -5.94641548e-004 7.33247260e-004
      3.39355040e-003 1.30951218e-002 -4.44873658e-005 -8.56063887e-003
      4.86056460e-003 3.52439401e-003 -3.80423805e-003 5.45746461e-003
      -1.89803110e-003 -1.00476872e-002 -8.00918904e-004
      -5.61244227e-003 -2.00324338e-002 9.91618168e-003 2.08075903e-003
      5.43144997e-004 -1.34578729e-002 1.48102138e-002 -1.86919197e-002
      5.61864441e-003 1.53310373e-002 3.63576994e-003 1.60324574e-002
      2.93191103e-003 1.43207554e-002 -1.16425264e-003 -2.66969837e-002
      7.90501945e-003 1.28934970e-002 2.34277137e-002 -7.82820396e-003
      6.62002712e-003 2.47335550e-003 -6.01765001e-003 8.27771332e-003
      1.43866276e-003 -6.45020930e-003 4.31585452e-003 4.62366827e-003
      -1.88424881e-003 2.44595134e-003 6.78152079e-003 -2.45907623e-003
      1.36532374e-002 8.62926536e-004 1.14724776e-002 -1.02598332e-002
      -1.10953543e-002 6.95814006e-003 -1.15315178e-002 -1.80579329e-004
      -3.26501997e-003 1.15503278e-003 1.17995813e-002 -7.15256855e-003
      1.78540219e-002 4.77286009e-003 -2.88390554e-002 -1.67921484e-002
      1.77129433e-002 1.12210028e-002 -3.75840664e-002 4.61392198e-003
      -9.87007003e-003 8.52100458e-003 -2.11740611e-003 -1.32079190e-002
      1.36131281e-002 -1.27265351e-002 1.17403893e-002 2.08443194e-003
      1.29876137e-002 -3.14205070e-003 -5.26323961e-003 -6.13007741e-003
      -9.95802972e-003 -1.68924369e-002 4.96801149e-005 1.22870994e-003
      2.31937715e-003 1.74627118e-002 1.18636889e-002 -2.33441591e-003
      2.39502708e-003 1.04921656e-002 7.32869282e-003 2.07058545e-002
      -3.20333466e-002 -2.89748609e-002 -1.71386488e-002 1.03923110e-002
      -1.55831408e-002 -3.60543397e-003 -6.53234951e-004 1.38621998e-003
      1.45709924e-002 -3.15667968e-003 -1.25536788e-003 -3.16859111e-002
      7.03258300e-003 -8.40649102e-003 6.32517971e-003 -3.71506932e-004
      8.60816240e-003 1.39491064e-002 1.04207378e-002 1.37293786e-002
      -3.13339010e-003 -2.35901959e-003 5.42448461e-003 1.49516799e-002
      -1.18420571e-002 -1.52176777e-002 6.83282642e-003 5.38421003e-003
      -1.16363065e-002 2.25150469e-003 -1.61963645e-002 -1.91495172e-003
      1.39243749e-003 4.06959513e-003 2.31610555e-002 8.81501532e-004
      1.04765128e-002 -1.98154189e-002 -3.97146633e-003 1.83432421e-003
      -1.12433052e-002 -2.05698889e-003 1.85271690e-003 1.57252699e-003
      1.23987915e-002 -1.24053201e-002 9.58265271e-003 1.61523838e-002
      2.29530260e-002 1.77137535e-002 1.12338383e-002 1.73195936e-002
      5.17273927e-003 1.81410071e-002 5.88571932e-003 -6.40450045e-004
      -4.19568829e-003 -9.45388619e-003 7.92370085e-003 -4.81394585e-003
      8.20279401e-003 -2.24700309e-002 -4.12634807e-003 -1.09699378e-002
      -1.18026056e-003 -1.66143589e-002 -1.83068402e-002 2.03128997e-002
      -2.00300254e-002 -3.27098975e-003 -8.14882573e-003
      -8.77680432e-004 4.18840034e-004 1.23735229e-002 -2.26033595e-003
      -4.09645122e-003 5.97838964e-003 9.85454954e-003 -5.29186008e-003
      1.65571421e-002 1.89539662e-003 5.11604827e-003 -1.11884754e-002
      6.60238788e-003 6.29234826e-003 -7.14013586e-004 1.70347877e-002
      -9.92370024e-003 -5.05648926e-003 4.65991208e-003 3.65161244e-003
      1.07052177e-003 7.92814698e-003 -9.48310271e-003 -6.45554299e-003
      -1.11395838e-002 3.58779309e-003 0. -1.05716307e-002
      3.23521625e-003 1.48491506e-002 -7.12118903e-003 5.82214538e-003
      -3.42486501e-002 -6.81076571e-003 -3.79749015e-003 2.88138213e-003
      -9.32728581e-004 2.59527657e-002 -2.07459666e-002 1.19051002e-002
      2.63445242e-003 8.89906753e-003 -1.21892728e-002 -1.24193607e-002
      -3.38889891e-003 6.95745286e-004 -1.41659342e-002 1.24131655e-003
      1.10508292e-003 -9.37836897e-003 -9.71912779e-003 -1.43238734e-002
      -3.64749786e-003 3.92713118e-003 4.30964539e-003 -2.18809955e-003
      7.46340910e-003 5.67439012e-003 -1.69086177e-002 6.00706262e-004
      3.09818750e-003 -1.64868794e-002 2.12288275e-003 -1.56930753e-003
      5.10522071e-003 6.73819752e-003 4.68675839e-003 5.72399702e-003
      2.51428708e-002 -5.96587081e-003 -5.20827770e-002 -5.34033694e-004
      4.92428057e-003 1.42189562e-002 -9.69775021e-003 -5.18705091e-003
      6.57681795e-003 -1.17753353e-002 1.05853435e-002 2.36669574e-002
      -3.64664197e-002 -2.58886302e-003 -3.95030854e-003 4.48461185e-004
      -1.98707264e-003 -2.20493134e-003 9.91902500e-003 -7.58216949e-003
      2.73997965e-003 -6.51970913e-004 3.87511775e-003 -5.68264490e-003
      -2.39283196e-003 -1.16685079e-003 8.88499338e-003 -1.52602764e-002
      -6.82297908e-003 2.57095275e-003 -1.20581090e-002 1.19146416e-002
      -6.55166479e-003 -2.76429430e-002 -3.14686622e-004 1.35049103e-002
      7.67497253e-003 -1.94230787e-002 -3.35242273e-003 -4.05704463e-003
      -3.82359466e-003 2.99205910e-003 1.73364952e-002 1.70533247e-002
      8.02572165e-003 -5.70451543e-002 1.52847068e-002 3.48547176e-002
      5.52388467e-003 -2.15453170e-002 1.47975807e-003 -8.08630604e-003
      -2.69451048e-002 -4.27907333e-003 1.74058210e-002 1.08249374e-002
      1.06798729e-003 1.43217552e-003 1.05180088e-002 -2.06594332e-003
      5.50839445e-003 -3.83440917e-003 1.20053987e-003 3.11920047e-003</_></support_vectors>
  <decision_functions>
    <_>
      <sv_count>1</sv_count>
      <rho>-9.9931827705959331e-001</rho>
      <alpha>
        1.</alpha>
      <index>
        0</index></_></decision_functions></my_svm>
</opencv_storage>
